{"learner":{"attributes":{"scikit_learn":"{\"_estimator_type\": \"classifier\"}"},"feature_names":["age","is_male","is_emergency","is_weekend_admission","admission_month","los_days","previous_admissions","diagnosis_count","discharged_to_snf","discharged_home","high_comorbidity","frequent_flyer","recent_admission","age_group_Middle","age_group_Senior","age_group_Elderly","los_category_Medium","los_category_Long","dx_category_250","dx_category_296","dx_category_305","dx_category_414","dx_category_427","dx_category_428","dx_category_682","dx_category_780","dx_category_786","dx_category_789","dx_category_996","dx_category_998","dx_category_A41","dx_category_F10","dx_category_F32","dx_category_I21","dx_category_I25","dx_category_Other","dx_category_R07","dx_category_Unknown","dx_category_Z51","insurance_Medicare","insurance_No charge","insurance_Other","insurance_Private","insurance_Unknown"],"feature_types":["int","int","int","int","int","float","int","float","int","int","int","int","int","i","i","i","i","i","i","i","i","i","i","i","i","i","i","i","i","i","i","i","i","i","i","i","i","i","i","i","i","i","i","i"],"gradient_booster":{"model":{"cats":{"enc":[],"feature_segments":[],"sorted_idx":[]},"gbtree_model_param":{"num_parallel_tree":"1","num_trees":"100"},"iteration_indptr":[0,1,2,3,4,5,6,7,8,9,10,11,12,13,14,15,16,17,18,19,20,21,22,23,24,25,26,27,28,29,30,31,32,33,34,35,36,37,38,39,40,41,42,43,44,45,46,47,48,49,50,51,52,53,54,55,56,57,58,59,60,61,62,63,64,65,66,67,68,69,70,71,72,73,74,75,76,77,78,79,80,81,82,83,84,85,86,87,88,89,90,91,92,93,94,95,96,97,98,99,100],"tree_info":[0,0,0,0,0,0,0,0,0,0,0,0,0,0,0,0,0,0,0,0,0,0,0,0,0,0,0,0,0,0,0,0,0,0,0,0,0,0,0,0,0,0,0,0,0,0,0,0,0,0,0,0,0,0,0,0,0,0,0,0,0,0,0,0,0,0,0,0,0,0,0,0,0,0,0,0,0,0,0,0,0,0,0,0,0,0,0,0,0,0,0,0,0,0,0,0,0,0,0,0],"trees":[{"base_weights":[3.4469604E-3,-2.7390012E-1,4.162776E-1,-4.1258004E-1,1.5338233E-1,2.974397E-1,7.9761565E-1,-4.3733856E-1,1.323044E0,6.6774406E-2,5.187955E-1,2.5697562E-1,1.5384916E0,6.8650675E-1,1.1382117E0,-4.0462273E-1,-1.2468721E0,1.5760071E0,8.828579E-1,-1.47037E-2,2.2090745E-1,4.1267842E-1,7.264868E-1,1.8865542E-1,4.7332564E-1,1.3576673E0,1.6349753E0,9.468826E-1,6.3398325E-1,1.4223868E0,9.842663E-1,1.8081936E-1,-4.6817678E-1,-1.3585187E0,-8.928089E-1,1.707354E0,1.3669105E0,7.0636946E-1,1.315334E0,1.0404712E-1,-1.857443E-1,3.4076273E-1,9.886326E-2,3.7386748E-1,7.989719E-1,4.0186334E-1,7.7233905E-1,6.377292E-2,3.0207837E-1,3.411159E-1,6.0537815E-1,1.3818554E0,6.453332E-1,1.6458223E0,3.7926203E-1,9.201905E-1,1.7021619E0,5.3556824E-1,7.328305E-1,1.4378238E0,-4.9442887E-1,1.5037339E0,9.3364537E-1,6.1717696E-2,-1.3698474E-2,-4.7952425E-2,5.6290235E-2,-1.4264898E-1,-9.060637E-2,-9.2591524E-2,1.1854078E-1,1.8287459E-1,1.4981213E-1,1.3766871E-1,3.834525E-2,4.315268E-2,1.3052134E-1,1.4423837E-1,-7.8017645E-2,2.6857277E-2,2.3567125E-3,-3.267467E-2,-1.3710508E-2,2.5432298E-2,5.465568E-2,-8.1908135E-3,1.8546423E-2,2.7651042E-2,5.0404936E-2,8.922164E-2,2.2926835E-2,5.3391036E-2,-1.41828405E-2,7.8329556E-2,-1.5539664E-2,-4.927092E-4,2.1750247E-2,3.8306724E-2,7.588131E-3,4.4182044E-2,2.703835E-2,5.083434E-2,7.314584E-2,1.5537596E-1,1.2821256E-1,-5.5735357E-2,9.820913E-2,3.3286434E-2,1.655085E-1,-5.5735357E-2,1.0621537E-1,7.129228E-2,1.0121428E-1,1.7887996E-1,8.055489E-2,6.282117E-2,3.4443524E-2,8.3897464E-2,6.5990925E-2,1.3550451E-1,1.6558836E-1,2.6670441E-2,-1.2727273E-1,8.5221305E-2,1.5614755E-1,9.695132E-2,4.3019854E-2],"categories":[],"categories_nodes":[],"categories_segments":[],"categories_sizes":[],"default_left":[0,0,0,0,0,0,0,0,0,0,0,0,0,0,0,0,0,0,0,0,0,0,0,0,0,0,0,0,0,0,0,0,0,0,0,0,0,0,0,0,0,0,0,0,0,0,0,0,0,0,0,0,0,0,0,0,0,0,0,0,0,0,0,0,0,0,0,0,0,0,0,0,0,0,0,0,0,0,0,0,0,0,0,0,0,0,0,0,0,0,0,0,0,0,0,0,0,0,0,0,0,0,0,0,0,0,0,0,0,0,0,0,0,0,0,0,0,0,0,0,0,0,0,0,0,0,0],"id":0,"left_children":[1,3,5,7,9,11,13,15,17,19,21,23,25,27,29,31,33,35,37,39,41,43,45,47,49,51,53,55,57,59,61,63,65,67,69,71,73,75,77,79,81,83,85,87,89,91,93,95,97,99,101,103,105,107,109,111,113,115,117,119,121,123,125,-1,-1,-1,-1,-1,-1,-1,-1,-1,-1,-1,-1,-1,-1,-1,-1,-1,-1,-1,-1,-1,-1,-1,-1,-1,-1,-1,-1,-1,-1,-1,-1,-1,-1,-1,-1,-1,-1,-1,-1,-1,-1,-1,-1,-1,-1,-1,-1,-1,-1,-1,-1,-1,-1,-1,-1,-1,-1,-1,-1,-1,-1,-1,-1],"loss_changes":[7.798173E3,2.414062E3,1.2400576E3,1.3222407E3,3.1590784E2,1.0475537E3,2.4527832E2,8.026362E2,4.6803467E1,1.01368744E2,4.185382E1,2.9864026E2,9.272583E0,6.648291E1,6.8501465E1,1.0846172E3,4.533142E1,5.1801147E0,1.1300781E1,1.07286354E2,4.0796585E1,1.871431E1,9.297089E0,2.1756958E2,8.4463745E1,3.158661E0,5.159546E0,1.4992493E1,3.9345337E1,1.7257568E1,2.5934448E1,3.9602344E2,3.0791602E2,2.6178467E1,2.0719284E1,1.4263306E0,5.35202E-1,1.852118E1,1.3179733E1,4.1275124E1,1.4799744E1,2.490538E1,2.1688486E1,1.4490021E1,5.8992157E0,5.960615E0,5.8595886E0,7.723185E1,1.4743958E2,1.715915E1,2.9296326E1,1.8907166E0,4.4340754E0,4.5651855E0,3.7491105E0,1.4439941E1,6.455536E-1,3.6094543E1,1.5199463E1,7.774048E0,3.4267435E0,2.080536E0,1.6736938E1,0E0,0E0,0E0,0E0,0E0,0E0,0E0,0E0,0E0,0E0,0E0,0E0,0E0,0E0,0E0,0E0,0E0,0E0,0E0,0E0,0E0,0E0,0E0,0E0,0E0,0E0,0E0,0E0,0E0,0E0,0E0,0E0,0E0,0E0,0E0,0E0,0E0,0E0,0E0,0E0,0E0,0E0,0E0,0E0,0E0,0E0,0E0,0E0,0E0,0E0,0E0,0E0,0E0,0E0,0E0,0E0,0E0,0E0,0E0,0E0,0E0,0E0,0E0,0E0],"parents":[2147483647,0,0,1,1,2,2,3,3,4,4,5,5,6,6,7,7,8,8,9,9,10,10,11,11,12,12,13,13,14,14,15,15,16,16,17,17,18,18,19,19,20,20,21,21,22,22,23,23,24,24,25,25,26,26,27,27,28,28,29,29,30,30,31,31,32,32,33,33,34,34,35,35,36,36,37,37,38,38,39,39,40,40,41,41,42,42,43,43,44,44,45,45,46,46,47,47,48,48,49,49,50,50,51,51,52,52,53,53,54,54,55,55,56,56,57,57,58,58,59,59,60,60,61,61,62,62],"right_children":[2,4,6,8,10,12,14,16,18,20,22,24,26,28,30,32,34,36,38,40,42,44,46,48,50,52,54,56,58,60,62,64,66,68,70,72,74,76,78,80,82,84,86,88,90,92,94,96,98,100,102,104,106,108,110,112,114,116,118,120,122,124,126,-1,-1,-1,-1,-1,-1,-1,-1,-1,-1,-1,-1,-1,-1,-1,-1,-1,-1,-1,-1,-1,-1,-1,-1,-1,-1,-1,-1,-1,-1,-1,-1,-1,-1,-1,-1,-1,-1,-1,-1,-1,-1,-1,-1,-1,-1,-1,-1,-1,-1,-1,-1,-1,-1,-1,-1,-1,-1,-1,-1,-1,-1,-1,-1],"split_conditions":[1E0,5.5659723E0,1.1E1,1E0,1.5631945E1,1E0,3.1E1,1E0,1E0,1.9E1,2.7625694E1,1.8E1,1E0,7.361111E-1,8E0,4.8958334E-1,9E0,3E1,1E0,1E0,2E0,3.5E1,1.6E1,3E0,6.7118053E0,3E1,8.2E1,1E0,3.9791667E0,1E0,3.3E1,4.4E1,1E0,4E0,3.5E1,7.361111E-1,4.6270833E0,1E0,2E1,1E0,1.1E1,2.6E1,7.038889E0,6.8E1,1E0,1E0,2.3E1,4.757639E0,7.1E1,6.6E1,2.5E1,6.0486114E-1,3.3E1,3.0381944E0,4E0,1E0,1E0,6.7E1,1E0,8.1E1,1E0,9E0,7.8E1,6.1717696E-2,-1.3698474E-2,-4.7952425E-2,5.6290235E-2,-1.4264898E-1,-9.060637E-2,-9.2591524E-2,1.1854078E-1,1.8287459E-1,1.4981213E-1,1.3766871E-1,3.834525E-2,4.315268E-2,1.3052134E-1,1.4423837E-1,-7.8017645E-2,2.6857277E-2,2.3567125E-3,-3.267467E-2,-1.3710508E-2,2.5432298E-2,5.465568E-2,-8.1908135E-3,1.8546423E-2,2.7651042E-2,5.0404936E-2,8.922164E-2,2.2926835E-2,5.3391036E-2,-1.41828405E-2,7.8329556E-2,-1.5539664E-2,-4.927092E-4,2.1750247E-2,3.8306724E-2,7.588131E-3,4.4182044E-2,2.703835E-2,5.083434E-2,7.314584E-2,1.5537596E-1,1.2821256E-1,-5.5735357E-2,9.820913E-2,3.3286434E-2,1.655085E-1,-5.5735357E-2,1.0621537E-1,7.129228E-2,1.0121428E-1,1.7887996E-1,8.055489E-2,6.282117E-2,3.4443524E-2,8.3897464E-2,6.5990925E-2,1.3550451E-1,1.6558836E-1,2.6670441E-2,-1.2727273E-1,8.5221305E-2,1.5614755E-1,9.695132E-2,4.3019854E-2],"split_indices":[12,5,6,32,5,38,6,26,6,7,5,7,16,5,7,5,7,0,39,6,6,7,7,6,5,7,0,38,5,38,0,0,43,6,6,5,5,42,6,9,7,7,5,0,42,6,6,5,0,0,7,5,7,5,6,1,39,0,39,6,3,7,0,0,0,0,0,0,0,0,0,0,0,0,0,0,0,0,0,0,0,0,0,0,0,0,0,0,0,0,0,0,0,0,0,0,0,0,0,0,0,0,0,0,0,0,0,0,0,0,0,0,0,0,0,0,0,0,0,0,0,0,0,0,0,0,0],"split_type":[0,0,0,0,0,0,0,0,0,0,0,0,0,0,0,0,0,0,0,0,0,0,0,0,0,0,0,0,0,0,0,0,0,0,0,0,0,0,0,0,0,0,0,0,0,0,0,0,0,0,0,0,0,0,0,0,0,0,0,0,0,0,0,0,0,0,0,0,0,0,0,0,0,0,0,0,0,0,0,0,0,0,0,0,0,0,0,0,0,0,0,0,0,0,0,0,0,0,0,0,0,0,0,0,0,0,0,0,0,0,0,0,0,0,0,0,0,0,0,0,0,0,0,0,0,0,0],"sum_hessian":[6.810588E4,4.0737816E4,2.7368064E4,3.07557E4,9.982117E3,2.0866984E4,6.5010806E3,3.032388E4,4.318198E2,8.0704844E3,1.9116326E3,2.0209273E4,6.5770953E2,4.90424E3,1.5968402E3,2.914744E4,1.1764409E3,2.725895E2,1.5923029E2,5.280174E3,2.7903105E3,1.2671741E3,6.4445856E2,1.5360517E4,4.8487573E3,2.3408066E2,4.2362885E2,8.203709E2,4.0838694E3,5.5819775E2,1.0386426E3,2.8541316E3,2.6293309E4,8.92251E2,2.8418994E2,1.6302063E2,1.0956888E2,1.14952736E2,4.427755E1,3.1166936E3,2.16348E3,1.4068757E3,1.3834348E3,1.1532725E3,1.1390156E2,8.097046E1,5.634881E2,7.3116753E3,8.0488413E3,2.424727E3,2.42403E3,2.254842E2,8.596456E0,4.196928E2,3.936023E0,7.945107E2,2.5860231E1,2.0496248E3,2.0342448E3,5.539861E2,4.2116137E0,8.967715E1,9.489654E2,1.2023354E3,1.651796E3,2.600762E4,2.8568893E2,7.7384546E2,1.184055E2,2.802795E2,3.9104323E0,9.826769E1,6.475294E1,1.0809447E2,1.4744092E0,7.997046E1,3.4982277E1,4.2040344E1,2.2372046E0,1.0230107E3,2.0936829E3,5.534222E2,1.6100579E3,9.923109E2,4.145649E2,4.4810724E2,9.3532764E2,6.616092E2,4.916633E2,9.739467E1,1.6506887E1,6.516239E1,1.5808069E1,5.570649E2,6.423228E0,5.054047E3,2.2576287E3,5.926272E3,2.1225696E3,9.98243E2,1.426484E3,1.3726405E3,1.0513896E3,7.743305E1,1.4805115E2,1.7372046E0,6.8592505E0,3.1988184E0,4.1649402E2,1.7372046E0,2.1988184E0,2.4684839E2,5.476623E2,2.2674208E1,3.186023E0,1.3789506E3,6.7067413E2,8.2413275E2,1.210112E3,4.0678043E2,1.4720567E2,2.461614E0,1.75E0,8.58366E0,8.109349E1,8.84989E2,6.3976368E1],"tree_param":{"num_deleted":"0","num_feature":"44","num_nodes":"127","size_leaf_vector":"1"}},{"base_weights":[7.222652E-4,-2.523499E-1,3.7838697E-1,-3.7161866E-1,1.6484977E-1,1.9709657E-1,5.707213E-1,-3.933743E-1,1.2032639E0,-4.147833E-3,3.3223474E-1,1.618617E-1,1.472665E0,4.7472727E-1,8.882237E-1,-4.1296273E-1,1.2148837E0,1.4301411E0,8.231697E-1,-6.567351E-2,1.3716868E-1,2.7500597E-1,6.8354267E-1,1.1450537E-1,4.9294606E-1,1.2186729E0,1.5844631E0,4.4398832E-1,1.3100458E0,1.1999525E0,7.7068156E-1,1.380026E-1,-4.38092E-1,1.6525204E0,8.681621E-1,-3.2459047E-2,1.4393672E0,1.5283893E0,7.2742474E-1,4.3778285E-2,-2.1522407E-1,2.5189462E-1,8.2169525E-2,2.1411444E-1,4.8487097E-1,-1.5435353E-1,7.0332164E-1,6.254342E-1,9.865977E-2,3.869846E-1,6.5939003E-1,1.4813909E-1,1.0479889E0,1.6363662E-1,1.1555606E0,5.4875165E-1,3.501373E-1,1.3734484E0,8.971464E-1,8.7644815E-1,1.2750899E0,6.8029976E-1,9.801105E-1,-5.9483107E-2,5.0631434E-2,-4.7838714E-2,-1.9528989E-2,1.6638848E-1,8.160039E-2,9.509319E-2,-5.4782044E-2,1.5456697E-1,1.2589733E-1,1.6039787E-1,3.8240623E-2,5.9979714E-2,1.2092048E-1,1.8711817E-2,-2.0796505E-3,-2.2159494E-2,1.19881585E-1,4.137829E-2,1.34371715E-2,-3.6230653E-3,1.8431256E-2,3.143213E-2,7.129567E-3,5.729388E-2,3.3497732E-2,2.0260869E-2,-1.4429629E-1,7.232152E-2,7.2481544E-3,5.4971065E-2,1.494894E-1,-3.8712428E-4,2.0733565E-2,4.068193E-2,-5.1739223E-2,7.2685175E-2,4.5989055E-2,-7.6535106E-2,1.10658325E-1,1.3009171E-1,1.64619E-2,7.621963E-2,5.1371004E-2,2.7284337E-2,4.9389288E-2,1.2824234E-1,1.4945786E-1,1.4363578E-1,7.0078544E-2,-1.3372202E-3,9.30988E-2,1.1850675E-1,1.4972018E-1,7.2024465E-2,4.235206E-2,1.02237895E-1,3.482179E-2],"categories":[],"categories_nodes":[],"categories_segments":[],"categories_sizes":[],"default_left":[0,0,0,0,0,0,0,0,0,0,0,0,0,0,0,0,0,0,0,0,0,0,0,0,0,0,0,0,0,0,0,0,0,0,0,0,0,0,0,0,0,0,0,0,0,0,0,0,0,0,0,0,0,0,0,0,0,0,0,0,0,0,0,0,0,0,0,0,0,0,0,0,0,0,0,0,0,0,0,0,0,0,0,0,0,0,0,0,0,0,0,0,0,0,0,0,0,0,0,0,0,0,0,0,0,0,0,0,0,0,0,0,0,0,0,0,0,0,0,0,0],"id":1,"left_children":[1,3,5,7,9,11,13,15,17,19,21,23,25,27,29,31,33,35,37,39,41,43,45,47,49,51,53,55,57,59,61,63,65,67,69,-1,71,73,75,77,79,81,83,85,87,89,91,93,95,97,99,-1,101,-1,103,105,107,109,111,113,115,117,119,-1,-1,-1,-1,-1,-1,-1,-1,-1,-1,-1,-1,-1,-1,-1,-1,-1,-1,-1,-1,-1,-1,-1,-1,-1,-1,-1,-1,-1,-1,-1,-1,-1,-1,-1,-1,-1,-1,-1,-1,-1,-1,-1,-1,-1,-1,-1,-1,-1,-1,-1,-1,-1,-1,-1,-1,-1,-1],"loss_changes":[6.5282964E3,2.035124E3,9.554895E2,1.0902339E3,2.572303E2,6.3390845E2,4.0486133E2,9.888706E2,3.621704E1,3.9359467E1,9.1660736E1,2.1523752E2,8.835205E0,2.6164404E2,1.1214551E2,4.2922217E2,5.5889282E1,4.8414307E0,9.9915695E0,5.1631935E1,8.643303E0,5.0119995E1,1.0703308E1,9.720686E1,3.0044281E1,3.8380432E0,3.89563E0,9.6670166E1,8.24353E0,1.9377808E1,4.1803345E1,3.654477E2,2.8994482E2,2.192688E-1,2.5472061E1,0E0,3.211792E0,1.0107269E0,8.294693E0,1.686712E1,1.2273434E1,8.400612E0,1.1249403E1,4.360022E1,1.14655E1,7.4509983E0,7.7876587E0,2.2959946E1,1.2985963E2,1.9083725E1,8.640564E0,0E0,8.952591E0,0E0,4.317833E0,3.4413208E1,5.763568E1,1.5222168E0,4.400257E0,7.880371E0,1.1863281E1,1.5804382E1,1.7649231E1,0E0,0E0,0E0,0E0,0E0,0E0,0E0,0E0,0E0,0E0,0E0,0E0,0E0,0E0,0E0,0E0,0E0,0E0,0E0,0E0,0E0,0E0,0E0,0E0,0E0,0E0,0E0,0E0,0E0,0E0,0E0,0E0,0E0,0E0,0E0,0E0,0E0,0E0,0E0,0E0,0E0,0E0,0E0,0E0,0E0,0E0,0E0,0E0,0E0,0E0,0E0,0E0,0E0,0E0,0E0,0E0,0E0,0E0],"parents":[2147483647,0,0,1,1,2,2,3,3,4,4,5,5,6,6,7,7,8,8,9,9,10,10,11,11,12,12,13,13,14,14,15,15,16,16,17,17,18,18,19,19,20,20,21,21,22,22,23,23,24,24,25,25,26,26,27,27,28,28,29,29,30,30,31,31,32,32,33,33,34,34,36,36,37,37,38,38,39,39,40,40,41,41,42,42,43,43,44,44,45,45,46,46,47,47,48,48,49,49,50,50,52,52,54,54,55,55,56,56,57,57,58,58,59,59,60,60,61,61,62,62],"right_children":[2,4,6,8,10,12,14,16,18,20,22,24,26,28,30,32,34,36,38,40,42,44,46,48,50,52,54,56,58,60,62,64,66,68,70,-1,72,74,76,78,80,82,84,86,88,90,92,94,96,98,100,-1,102,-1,104,106,108,110,112,114,116,118,120,-1,-1,-1,-1,-1,-1,-1,-1,-1,-1,-1,-1,-1,-1,-1,-1,-1,-1,-1,-1,-1,-1,-1,-1,-1,-1,-1,-1,-1,-1,-1,-1,-1,-1,-1,-1,-1,-1,-1,-1,-1,-1,-1,-1,-1,-1,-1,-1,-1,-1,-1,-1,-1,-1,-1,-1,-1,-1],"split_conditions":[1E0,5.9034724E0,5E0,1E0,9.251389E0,1E0,2E1,1E0,1E0,1.9E1,2.7625694E1,2.1E1,3.9791667E0,1E0,8E0,2.5625E-1,2.7708334E-1,2E0,1.7430556E-1,1E0,1E0,2.6E1,1E1,2.5625E-1,1.0784722E1,6.236111E-1,1E0,1E0,6.061111E0,1E0,3.8E1,1E0,4.3055553E0,1E0,1E0,-3.2459047E-2,7.5E-1,2E1,1E0,1E0,1E0,6E0,2.3E1,1E0,1E0,1E0,1.2E1,1E0,3.1979167E0,1E0,1E0,1.4813909E-1,7.895833E-1,1.6363662E-1,4E0,6.236111E-1,5.070139E0,1.3E1,1E0,2E0,6.6E1,1E0,1E0,-5.9483107E-2,5.0631434E-2,-4.7838714E-2,-1.9528989E-2,1.6638848E-1,8.160039E-2,9.509319E-2,-5.4782044E-2,1.5456697E-1,1.2589733E-1,1.6039787E-1,3.8240623E-2,5.9979714E-2,1.2092048E-1,1.8711817E-2,-2.0796505E-3,-2.2159494E-2,1.19881585E-1,4.137829E-2,1.34371715E-2,-3.6230653E-3,1.8431256E-2,3.143213E-2,7.129567E-3,5.729388E-2,3.3497732E-2,2.0260869E-2,-1.4429629E-1,7.232152E-2,7.2481544E-3,5.4971065E-2,1.494894E-1,-3.8712428E-4,2.0733565E-2,4.068193E-2,-5.1739223E-2,7.2685175E-2,4.5989055E-2,-7.6535106E-2,1.10658325E-1,1.3009171E-1,1.64619E-2,7.621963E-2,5.1371004E-2,2.7284337E-2,4.9389288E-2,1.2824234E-1,1.4945786E-1,1.4363578E-1,7.0078544E-2,-1.3372202E-3,9.30988E-2,1.1850675E-1,1.4972018E-1,7.2024465E-2,4.235206E-2,1.02237895E-1,3.482179E-2],"split_indices":[12,5,6,32,5,38,6,19,6,7,5,7,5,38,7,5,5,7,5,6,6,7,7,5,5,5,17,39,5,1,6,35,5,15,9,0,5,6,42,9,38,4,7,6,9,17,6,19,5,28,8,0,5,0,6,5,5,7,9,7,6,15,15,0,0,0,0,0,0,0,0,0,0,0,0,0,0,0,0,0,0,0,0,0,0,0,0,0,0,0,0,0,0,0,0,0,0,0,0,0,0,0,0,0,0,0,0,0,0,0,0,0,0,0,0,0,0,0,0,0,0],"split_type":[0,0,0,0,0,0,0,0,0,0,0,0,0,0,0,0,0,0,0,0,0,0,0,0,0,0,0,0,0,0,0,0,0,0,0,0,0,0,0,0,0,0,0,0,0,0,0,0,0,0,0,0,0,0,0,0,0,0,0,0,0,0,0,0,0,0,0,0,0,0,0,0,0,0,0,0,0,0,0,0,0,0,0,0,0,0,0,0,0,0,0,0,0,0,0,0,0,0,0,0,0,0,0,0,0,0,0,0,0,0,0,0,0,0,0,0,0,0,0,0,0],"sum_hessian":[6.830246E4,4.089749E4,2.7404975E4,3.1805162E4,9.092326E3,1.4108561E4,1.3296414E4,3.137253E4,4.3263406E2,4.5248535E3,4.567472E3,1.3730414E4,3.7814658E2,1.0211539E4,3.084875E3,3.0995746E4,3.7678235E2,2.6919165E2,1.6344241E2,3.152757E3,1.3720964E3,3.929183E3,6.38289E2,1.2013431E4,1.7169834E3,1.1921188E2,2.589347E2,9.850578E3,3.6096057E2,8.421731E2,2.242702E3,1.3518392E3,2.9643906E4,1.6488994E2,2.1189241E2,1.229178E0,2.6796246E2,1.774878E1,1.4569363E2,1.820842E3,1.3319152E3,4.4346555E2,9.286309E2,3.0470994E3,8.82084E2,1.4562777E1,6.2372626E2,3.6021204E2,1.1653218E4,1.0511353E3,6.658481E2,4.392422E1,7.528767E1,2.2847125E2,3.0463442E1,4.652392E3,5.198186E3,3.108949E2,5.0065685E1,1.6112279E2,6.810503E2,1.5695784E3,6.731234E2,4.519582E2,8.99881E2,2.5423656E4,4.2202505E3,1.6170407E2,3.1858735E0,2.0050078E2,1.1391636E1,1.6384406E2,1.041184E2,1.6275585E1,1.4731957E0,1.1695596E2,2.8737663E1,5.649335E2,1.2559086E3,1.3267806E3,5.134438E0,1.854654E2,2.5800015E2,4.303877E2,4.9824323E2,1.7899819E3,1.2571173E3,5.538533E2,3.282307E2,1.206373E1,2.4990468E0,6.045164E2,1.9209818E1,3.3285504E2,2.7356998E1,5.996625E3,5.6565933E3,1.029115E3,2.2020273E1,4.956113E2,1.7023679E2,1.9790604E0,7.33086E1,2.6293728E1,4.169713E0,6.531563E2,3.999236E3,3.382432E3,1.815754E3,1.8412138E2,1.2677351E2,1.1679273E1,3.8386414E1,9.348952E0,1.5177383E2,4.891374E2,1.9191289E2,1.3567203E3,2.1285808E2,6.303408E2,4.2782597E1],"tree_param":{"num_deleted":"0","num_feature":"44","num_nodes":"121","size_leaf_vector":"1"}},{"base_weights":[-6.8355363E-4,-1.1153206E-1,2.3159902E-1,-2.8298345E-1,4.629437E-2,1.5159445E-1,4.464688E-1,-3.0524272E-1,1.2208312E0,2.296759E-2,1.2082558E0,1.2947468E-1,1.2692564E0,3.6564416E-1,6.158779E-1,-2.69701E-1,-1.152501E0,1.2463944E0,-1.4733356E-1,4.545049E-1,-3.999119E-2,1.2826661E0,1.0459683E0,-4.2574672E-4,1.8198274E-1,1.2934817E0,6.9816524E-1,3.0145574E-1,4.5116517E-1,6.233402E-1,-8.620415E-2,-5.0905492E-2,-4.3153942E-1,-1.277895E0,-8.7315476E-1,1.4667563E-1,1.2006772E0,5.3133184E-1,-3.224313E-1,2.448482E-2,-2.4514075E-1,1.2888589E0,2.568003E-2,6.810796E-1,1.111227E0,1.7794855E-2,-4.8614898E-1,2.5884038E-1,8.355856E-2,1.39086E0,1.1166041E0,2.7145338E-1,1.13278225E-1,2.2822006E-1,3.987548E-1,5.222047E-1,3.51058E-1,5.211667E-1,6.651532E-1,1.1039801E-1,-3.1823826E-1,-9.2437295E-3,1.16640605E-1,-5.591296E-2,-2.7828893E-2,-1.3137141E-1,-8.0247656E-2,-9.4296776E-2,-3.189703E-2,8.278932E-2,1.23115376E-1,5.8482092E-2,-1.5309259E-2,-1.0803663E-2,-4.5212578E-2,1.0865176E-2,-1.0261915E-2,-3.2571893E-2,-2.008477E-3,1.2195622E-1,1.3748692E-1,1.1386348E-1,3.3940993E-2,7.667299E-2,1.20444074E-1,-7.6183304E-3,1.17772315E-2,5.826314E-2,-5.9355713E-2,1.0308498E-2,2.9146036E-2,1.2237378E-2,-7.4326893E-4,1.4840147E-1,1.19320646E-1,8.394552E-2,1.4184381E-1,8.038464E-2,-2.5999686E-2,2.1574657E-2,1.08097754E-1,4.0991977E-2,-3.6604498E-2,6.6109926E-2,4.7032718E-2,-7.032698E-2,3.571172E-2,4.4054404E-2,6.4324684E-2,6.73524E-2,1.7057413E-2,-5.7686996E-2,4.1487806E-2],"categories":[],"categories_nodes":[],"categories_segments":[],"categories_sizes":[],"default_left":[0,0,0,0,0,0,0,0,0,0,0,0,0,0,0,0,0,0,0,0,0,0,0,0,0,0,0,0,0,0,0,0,0,0,0,0,0,0,0,0,0,0,0,0,0,0,0,0,0,0,0,0,0,0,0,0,0,0,0,0,0,0,0,0,0,0,0,0,0,0,0,0,0,0,0,0,0,0,0,0,0,0,0,0,0,0,0,0,0,0,0,0,0,0,0,0,0,0,0,0,0,0,0,0,0,0,0,0,0,0,0,0,0],"id":2,"left_children":[1,3,5,7,9,11,13,15,17,19,21,23,25,27,29,31,33,35,-1,37,39,41,43,45,47,49,51,53,55,57,59,61,63,65,67,-1,69,71,73,75,77,79,-1,81,83,85,87,89,91,93,95,97,-1,99,101,103,105,107,109,-1,111,-1,-1,-1,-1,-1,-1,-1,-1,-1,-1,-1,-1,-1,-1,-1,-1,-1,-1,-1,-1,-1,-1,-1,-1,-1,-1,-1,-1,-1,-1,-1,-1,-1,-1,-1,-1,-1,-1,-1,-1,-1,-1,-1,-1,-1,-1,-1,-1,-1,-1,-1,-1],"loss_changes":[1.7554559E3,1.2488933E3,3.7855225E2,7.408718E2,6.513613E2,3.966465E2,8.1589966E1,6.5614966E2,2.4072754E1,6.401291E2,4.369568E0,1.073616E2,3.4049072E0,2.208368E1,1.0157471E1,7.408707E2,2.96167E1,1.4664612E0,0E0,1.7922552E2,2.71978E2,1.7009888E0,2.9125366E0,4.0117504E1,8.4772675E1,3.5717468E0,2.4453955E0,1.6406906E1,1.2144287E1,7.8061523E0,6.195151E0,4.4993658E2,2.3501367E2,9.220886E0,1.0337845E1,0E0,2.0578003E0,1.0003998E2,7.4742565E0,1.6738625E2,8.916144E1,2.166748E-1,0E0,3.6722155E0,3.2232819E0,4.1059647E1,1.9160145E1,3.1946838E1,1.7365322E1,1.6875E0,8.07103E0,2.70035E0,0E0,1.3842674E1,8.628693E0,6.980194E0,4.8672104E0,5.216522E0,5.4765015E0,0E0,3.7441463E0,0E0,0E0,0E0,0E0,0E0,0E0,0E0,0E0,0E0,0E0,0E0,0E0,0E0,0E0,0E0,0E0,0E0,0E0,0E0,0E0,0E0,0E0,0E0,0E0,0E0,0E0,0E0,0E0,0E0,0E0,0E0,0E0,0E0,0E0,0E0,0E0,0E0,0E0,0E0,0E0,0E0,0E0,0E0,0E0,0E0,0E0,0E0,0E0,0E0,0E0,0E0,0E0],"parents":[2147483647,0,0,1,1,2,2,3,3,4,4,5,5,6,6,7,7,8,8,9,9,10,10,11,11,12,12,13,13,14,14,15,15,16,16,17,17,19,19,20,20,21,21,22,22,23,23,24,24,25,25,26,26,27,27,28,28,29,29,30,30,31,31,32,32,33,33,34,34,36,36,37,37,38,38,39,39,40,40,41,41,43,43,44,44,45,45,46,46,47,47,48,48,49,49,50,50,51,51,53,53,54,54,55,55,56,56,57,57,58,58,60,60],"right_children":[2,4,6,8,10,12,14,16,18,20,22,24,26,28,30,32,34,36,-1,38,40,42,44,46,48,50,52,54,56,58,60,62,64,66,68,-1,70,72,74,76,78,80,-1,82,84,86,88,90,92,94,96,98,-1,100,102,104,106,108,110,-1,112,-1,-1,-1,-1,-1,-1,-1,-1,-1,-1,-1,-1,-1,-1,-1,-1,-1,-1,-1,-1,-1,-1,-1,-1,-1,-1,-1,-1,-1,-1,-1,-1,-1,-1,-1,-1,-1,-1,-1,-1,-1,-1,-1,-1,-1,-1,-1,-1,-1,-1,-1,-1],"split_conditions":[4.757639E0,1E0,2.2E1,1E0,1E0,1E0,1.5631945E1,1E0,1E0,4.6875E-1,1E0,1.1E1,1.4870139E1,2.7E1,1E0,1E0,7E0,2.375E-1,-1.4733356E-1,1E0,1E0,2.3E1,8E0,1E0,1E0,1E0,1E0,8.684028E0,1E0,2.6E1,3E0,1E0,9E0,1.1840278E0,2.7180555E0,1.4667563E-1,3.402778E-1,1E0,2.375E-1,1E0,1.8E1,3.3993056E0,2.568003E-2,2.9708333E0,1.03125E0,1E0,1E0,1E0,1E0,1E0,1E0,1.8E1,1.13278225E-1,1E0,1E0,1E0,4.797222E0,1E0,1E0,1.1039801E-1,2.7625694E1,-9.2437295E-3,1.16640605E-1,-5.591296E-2,-2.7828893E-2,-1.3137141E-1,-8.0247656E-2,-9.4296776E-2,-3.189703E-2,8.278932E-2,1.23115376E-1,5.8482092E-2,-1.5309259E-2,-1.0803663E-2,-4.5212578E-2,1.0865176E-2,-1.0261915E-2,-3.2571893E-2,-2.008477E-3,1.2195622E-1,1.3748692E-1,1.1386348E-1,3.3940993E-2,7.667299E-2,1.20444074E-1,-7.6183304E-3,1.17772315E-2,5.826314E-2,-5.9355713E-2,1.0308498E-2,2.9146036E-2,1.2237378E-2,-7.4326893E-4,1.4840147E-1,1.19320646E-1,8.394552E-2,1.4184381E-1,8.038464E-2,-2.5999686E-2,2.1574657E-2,1.08097754E-1,4.0991977E-2,-3.6604498E-2,6.6109926E-2,4.7032718E-2,-7.032698E-2,3.571172E-2,4.4054404E-2,6.4324684E-2,6.73524E-2,1.7057413E-2,-5.7686996E-2,4.1487806E-2],"split_indices":[5,11,7,32,38,38,5,26,9,5,39,7,5,7,23,9,7,5,0,15,15,7,7,19,16,39,39,5,14,7,4,19,7,5,5,0,5,26,5,14,7,5,0,5,5,1,9,35,15,14,1,7,0,38,41,11,5,14,28,0,5,0,0,0,0,0,0,0,0,0,0,0,0,0,0,0,0,0,0,0,0,0,0,0,0,0,0,0,0,0,0,0,0,0,0,0,0,0,0,0,0,0,0,0,0,0,0,0,0,0,0,0,0],"split_type":[0,0,0,0,0,0,0,0,0,0,0,0,0,0,0,0,0,0,0,0,0,0,0,0,0,0,0,0,0,0,0,0,0,0,0,0,0,0,0,0,0,0,0,0,0,0,0,0,0,0,0,0,0,0,0,0,0,0,0,0,0,0,0,0,0,0,0,0,0,0,0,0,0,0,0,0,0,0,0,0,0,0,0,0,0,0,0,0,0,0,0,0,0,0,0,0,0,0,0,0,0,0,0,0,0,0,0,0,0,0,0,0,0],"sum_hessian":[6.8175875E4,4.6152004E4,2.2023867E4,2.2120775E4,2.4031229E4,1.6049649E4,5.974217E3,2.1798908E4,3.2186716E2,2.3559287E4,4.7194107E2,1.5739268E4,3.1038165E2,4.0467036E3,1.9275135E3,2.0922545E4,8.76363E2,3.1937418E2,2.4929657E0,2.9987546E3,2.0560533E4,3.1884427E2,1.5309682E2,4.530987E3,1.1208281E4,2.9653775E2,1.3843893E1,2.3142507E3,1.7324528E3,1.9073528E3,2.0160746E1,8.896433E3,1.2026113E4,6.0238666E2,2.739763E2,4.9533756E1,2.6984042E2,2.7291958E3,2.6955887E2,1.5644529E4,4.9160044E3,3.1667624E2,2.1680112E0,2.4961794E1,1.2813503E2,4.368093E3,1.628939E2,6.292754E3,4.9155273E3,1.8682153E2,1.0971623E2,7.8052206E0,6.0386724E0,1.322311E3,9.9193976E2,1.0108803E3,7.215724E2,5.577957E2,1.3495571E3,2.6761255E0,1.7484621E1,8.603814E3,2.9261786E2,6.5610215E3,5.4650913E3,5.585417E2,4.3844975E1,2.4270071E2,3.127557E1,2.2521912E1,2.4731851E2,2.5314995E3,1.9769615E2,1.0229335E2,1.6726553E2,9.412087E3,6.232442E3,3.6196064E3,1.2963977E3,1.8378445E2,1.328918E2,9.6740265E0,1.5287766E1,2.9251892E1,9.888313E1,2.2517244E3,2.1163682E3,1.4471241E1,1.4842265E2,1.090403E3,5.202351E3,3.445426E3,1.4701014E3,1.2255353E2,6.4268005E1,5.9168198E1,5.0548035E1,3.6431024E0,4.162118E0,1.304483E3,1.7828003E1,9.7812463E2,1.3815151E1,2.7169992E2,7.3918036E2,3.4656534E0,7.1810675E2,3.3871472E2,2.1908098E2,1.3267401E3,2.2816954E1,1.3082463E1,4.4021573E0],"tree_param":{"num_deleted":"0","num_feature":"44","num_nodes":"113","size_leaf_vector":"1"}},{"base_weights":[-1.4579719E-3,-2.1833068E-1,3.2184234E-1,-3.2842582E-1,9.86048E-2,2.3407796E-1,6.46593E-1,4.3502775E-1,-3.6399794E-1,-2.3613302E-2,2.6909932E-1,1.478576E-1,3.461658E-1,5.478526E-1,8.965468E-1,8.532095E-1,-4.74692E-1,-3.3578295E-1,-1.0483353E0,7.114172E-2,-1.2096749E-1,2.0862225E-1,5.3675264E-1,4.4412687E-1,1.0578371E-1,3.633923E-1,-4.3234488E-1,5.852771E-1,3.0244425E-1,1.1691618E0,7.9579073E-1,8.896766E-1,-8.2460177E-1,-6.2366295E-1,1.6371818E-2,2.547372E-1,-3.6813623E-1,-1.1279505E0,-6.8617994E-1,-5.230531E-2,1.4469267E-1,-2.1813405E-1,2.7784817E-3,1.5861306E-1,3.7780637E-1,-3.0056146E-1,5.5898446E-1,4.9736568E-1,-2.0249148E-1,2.5264533E-2,2.632054E-1,3.2892886E-1,5.5134606E-1,4.7952354E-1,-5.7518095E-1,7.96848E-1,5.450181E-1,1.6932987E-1,4.5015156E-1,1.0645125E0,1.3931744E0,1.1275493E0,7.241104E-1,8.088097E-2,1.5668678E-1,-1.70005E-1,7.533531E-2,-3.7850414E-3,-7.188377E-2,-7.213524E-3,9.3359746E-2,1.5356301E-2,1.3025074E-1,-3.7801128E-2,8.205067E-2,-1.00926794E-1,-1.3539805E-1,-7.690699E-2,5.9195768E-2,1.608654E-2,-1.1860912E-2,6.626024E-2,1.32398745E-2,-3.484912E-2,-1.5907135E-2,1.8484259E-2,-4.2295814E-3,2.2267556E-2,6.6862106E-3,5.7015438E-2,2.4925446E-2,8.8763885E-2,-5.9506804E-2,4.474988E-2,7.206409E-2,4.5914117E-2,1.22820176E-1,-6.506619E-2,1.4008333E-3,3.5366588E-3,-8.48598E-2,4.1473508E-2,1.5504293E-2,2.6170382E-2,4.2166453E-2,6.140266E-2,3.8990505E-2,7.647469E-2,-1.1860998E-1,-1.7256685E-1,-5.2072383E-2,6.524061E-2,9.578156E-2,4.673236E-2,6.3019E-2,-2.5546411E-2,2.1955471E-2,1.2642194E-1,4.1699097E-2,9.448429E-2,1.4544712E-1,-1.4261277E-2,1.4164643E-1,1.2832494E-1,9.604422E-2,6.535595E-2,1.05794095E-1],"categories":[],"categories_nodes":[],"categories_segments":[],"categories_sizes":[],"default_left":[0,0,0,0,0,0,0,0,0,0,0,0,0,0,0,0,0,0,0,0,0,0,0,0,0,0,0,0,0,0,0,0,0,0,0,0,0,0,0,0,0,0,0,0,0,0,0,0,0,0,0,0,0,0,0,0,0,0,0,0,0,0,0,0,0,0,0,0,0,0,0,0,0,0,0,0,0,0,0,0,0,0,0,0,0,0,0,0,0,0,0,0,0,0,0,0,0,0,0,0,0,0,0,0,0,0,0,0,0,0,0,0,0,0,0,0,0,0,0,0,0,0,0,0,0,0,0],"id":3,"left_children":[1,3,5,7,9,11,13,15,17,19,21,23,25,27,29,31,33,35,37,39,41,43,45,47,49,51,53,55,57,59,61,63,65,67,69,71,73,75,77,79,81,83,85,87,89,91,93,95,97,99,101,103,105,107,109,111,113,115,117,119,121,123,125,-1,-1,-1,-1,-1,-1,-1,-1,-1,-1,-1,-1,-1,-1,-1,-1,-1,-1,-1,-1,-1,-1,-1,-1,-1,-1,-1,-1,-1,-1,-1,-1,-1,-1,-1,-1,-1,-1,-1,-1,-1,-1,-1,-1,-1,-1,-1,-1,-1,-1,-1,-1,-1,-1,-1,-1,-1,-1,-1,-1,-1,-1,-1,-1],"loss_changes":[4.7608022E3,1.4180491E3,7.768281E2,8.192827E2,2.1834436E2,2.0736926E2,1.4263916E2,5.1141174E2,5.5611304E2,5.6317192E1,7.070685E1,1.5119171E2,1.2529224E2,3.8026733E1,4.413391E1,5.705957E1,3.1002365E1,5.289248E2,3.211609E1,2.8099503E1,3.6205975E1,3.0147934E1,1.5166611E1,5.2029114E1,1.3467554E2,5.895398E1,2.6644936E1,3.029895E1,1.0786625E1,8.845886E0,2.7744812E1,4.8099976E1,2.9050257E1,1.8097084E1,8.151506E0,1.5227429E2,3.0834277E2,2.3677124E1,2.2505348E1,1.6356417E1,1.2258545E1,1.2930931E1,1.0884555E1,1.6193085E1,1.9981842E1,8.0483E0,1.382933E1,3.8378204E1,1.1211994E1,6.2097336E1,5.886592E1,4.8E1,1.4060059E1,1.4191653E1,1.0096279E1,1.2736389E1,1.9786316E1,6.2901917E0,6.5261383E0,1.283786E1,5.104126E0,4.2729797E0,2.2635315E1,0E0,0E0,0E0,0E0,0E0,0E0,0E0,0E0,0E0,0E0,0E0,0E0,0E0,0E0,0E0,0E0,0E0,0E0,0E0,0E0,0E0,0E0,0E0,0E0,0E0,0E0,0E0,0E0,0E0,0E0,0E0,0E0,0E0,0E0,0E0,0E0,0E0,0E0,0E0,0E0,0E0,0E0,0E0,0E0,0E0,0E0,0E0,0E0,0E0,0E0,0E0,0E0,0E0,0E0,0E0,0E0,0E0,0E0,0E0,0E0,0E0,0E0,0E0,0E0],"parents":[2147483647,0,0,1,1,2,2,3,3,4,4,5,5,6,6,7,7,8,8,9,9,10,10,11,11,12,12,13,13,14,14,15,15,16,16,17,17,18,18,19,19,20,20,21,21,22,22,23,23,24,24,25,25,26,26,27,27,28,28,29,29,30,30,31,31,32,32,33,33,34,34,35,35,36,36,37,37,38,38,39,39,40,40,41,41,42,42,43,43,44,44,45,45,46,46,47,47,48,48,49,49,50,50,51,51,52,52,53,53,54,54,55,55,56,56,57,57,58,58,59,59,60,60,61,61,62,62],"right_children":[2,4,6,8,10,12,14,16,18,20,22,24,26,28,30,32,34,36,38,40,42,44,46,48,50,52,54,56,58,60,62,64,66,68,70,72,74,76,78,80,82,84,86,88,90,92,94,96,98,100,102,104,106,108,110,112,114,116,118,120,122,124,126,-1,-1,-1,-1,-1,-1,-1,-1,-1,-1,-1,-1,-1,-1,-1,-1,-1,-1,-1,-1,-1,-1,-1,-1,-1,-1,-1,-1,-1,-1,-1,-1,-1,-1,-1,-1,-1,-1,-1,-1,-1,-1,-1,-1,-1,-1,-1,-1,-1,-1,-1,-1,-1,-1,-1,-1,-1,-1,-1,-1,-1,-1,-1,-1],"split_conditions":[1E0,5.263889E0,1.2E1,2.5E1,9.6E0,4.0729165E0,3E1,1E0,1E0,1E0,2.4779861E1,5.2916664E-1,1E0,7.7E1,6E0,1E0,1E0,2.9791668E-1,1.2083334E0,1.1E1,1.8E1,2.6E1,1E1,1E0,5E0,2.5E1,1E0,6.236111E-1,4.0055556E0,1E0,4E1,1E0,3E0,1.5284722E0,4.6270833E0,1E0,1E0,1E0,1.3E1,1E0,5.3625E0,1.1E1,1E0,1E0,1E0,2.7E1,1E0,1E0,3E0,1E0,5.8E1,4E0,1E0,1E0,2.2E1,1.9E1,3.9791667E0,9E0,1E1,1.02E2,1E0,3.3E1,6.2E1,8.088097E-2,1.5668678E-1,-1.70005E-1,7.533531E-2,-3.7850414E-3,-7.188377E-2,-7.213524E-3,9.3359746E-2,1.5356301E-2,1.3025074E-1,-3.7801128E-2,8.205067E-2,-1.00926794E-1,-1.3539805E-1,-7.690699E-2,5.9195768E-2,1.608654E-2,-1.1860912E-2,6.626024E-2,1.32398745E-2,-3.484912E-2,-1.5907135E-2,1.8484259E-2,-4.2295814E-3,2.2267556E-2,6.6862106E-3,5.7015438E-2,2.4925446E-2,8.8763885E-2,-5.9506804E-2,4.474988E-2,7.206409E-2,4.5914117E-2,1.22820176E-1,-6.506619E-2,1.4008333E-3,3.5366588E-3,-8.48598E-2,4.1473508E-2,1.5504293E-2,2.6170382E-2,4.2166453E-2,6.140266E-2,3.8990505E-2,7.647469E-2,-1.1860998E-1,-1.7256685E-1,-5.2072383E-2,6.524061E-2,9.578156E-2,4.673236E-2,6.3019E-2,-2.5546411E-2,2.1955471E-2,1.2642194E-1,4.1699097E-2,9.448429E-2,1.4544712E-1,-1.4261277E-2,1.4164643E-1,1.2832494E-1,9.604422E-2,6.535595E-2,1.05794095E-1],"split_indices":[12,5,6,0,5,5,6,9,26,6,5,5,19,0,7,20,1,5,5,7,7,7,7,26,6,7,9,5,5,20,0,43,7,5,5,19,32,42,6,9,5,7,35,6,6,0,9,19,6,21,0,6,8,8,0,6,5,7,7,6,1,0,6,0,0,0,0,0,0,0,0,0,0,0,0,0,0,0,0,0,0,0,0,0,0,0,0,0,0,0,0,0,0,0,0,0,0,0,0,0,0,0,0,0,0,0,0,0,0,0,0,0,0,0,0,0,0,0,0,0,0,0,0,0,0,0,0],"split_type":[0,0,0,0,0,0,0,0,0,0,0,0,0,0,0,0,0,0,0,0,0,0,0,0,0,0,0,0,0,0,0,0,0,0,0,0,0,0,0,0,0,0,0,0,0,0,0,0,0,0,0,0,0,0,0,0,0,0,0,0,0,0,0,0,0,0,0,0,0,0,0,0,0,0,0,0,0,0,0,0,0,0,0,0,0,0,0,0,0,0,0,0,0,0,0,0,0,0,0,0,0,0,0,0,0,0,0,0,0,0,0,0,0,0,0,0,0,0,0,0,0,0,0,0,0,0,0],"sum_hessian":[6.78979E4,4.0637938E4,2.7259963E4,3.0160816E4,1.0477119E4,2.146164E4,5.7983223E3,1.3422408E3,2.8818576E4,6.1030454E3,4.374074E3,1.2131868E4,9.329772E3,4.1586885E3,1.6396335E3,9.195859E2,4.2265497E2,2.7678877E4,1.1396998E3,3.092945E3,3.0101003E3,3.5693486E3,8.0472577E2,1.5074426E3,1.0624425E4,9.128318E3,2.0145364E2,3.6072083E3,5.514802E2,4.396017E2,1.2000319E3,9.0048364E2,1.910219E1,3.2407297E2,9.858201E1,1.4373378E3,2.624154E4,9.325714E2,2.0712834E2,1.1548866E3,1.9380585E3,1.6857052E3,1.324395E3,2.7564932E3,8.128553E2,2.0490112E1,7.8423566E2,1.3929834E3,1.14459305E2,7.029888E3,3.5945369E3,7.716214E3,1.412105E3,2.6963154E1,1.744905E2,5.736652E2,3.0335432E3,2.9119794E2,2.6028226E2,3.035485E2,1.360532E2,2.105963E2,9.894355E2,8.063836E2,9.410009E1,1.2236187E1,6.866002E0,4.548776E1,2.785852E2,9.074681E1,7.835196E0,1.3118137E3,1.25524055E2,2.6026E4,2.155377E2,6.1507587E2,3.1749557E2,1.9488776E2,1.2240591E1,2.736522E2,8.812344E2,4.3711613E1,1.8943469E3,5.2408905E2,1.1616161E3,2.6220316E2,1.0621919E3,1.6223245E3,1.1341688E3,3.242522E2,4.886031E2,3.6698697E0,1.6820244E1,4.663722E2,3.1786346E2,1.3252954E3,6.7687935E1,3.6629074E1,7.783023E1,6.9504985E3,7.9389854E1,1.4959536E3,2.0985833E3,4.475616E3,3.2405977E3,1.0151594E3,3.969456E2,2.3482796E1,3.4803586E0,6.4990892E0,1.6799141E2,3.0501624E2,2.68649E2,1.5898011E3,1.443742E3,3.0356962E1,2.6084097E2,8.734426E0,2.5154784E2,2.3488922E2,6.865928E1,1.9558492E0,1.3409737E2,1.0556145E2,1.0503485E2,8.19254E2,1.7018146E2],"tree_param":{"num_deleted":"0","num_feature":"44","num_nodes":"127","size_leaf_vector":"1"}},{"base_weights":[-6.4097816E-4,-6.389287E-2,3.8795504E-1,-1.7875361E-1,1.4057775E-1,3.0187088E-1,7.5678855E-1,2.7555433E-1,-2.1737948E-1,1.20956935E-1,1.233814E0,4.452265E-1,2.171551E-1,8.8092226E-1,5.5883867E-1,6.674073E-1,-3.224013E-1,-2.3057516E-1,1.0917991E0,4.1040167E-2,2.8163904E-1,1.3223345E0,8.5829353E-1,5.7112485E-1,3.9187106E-1,1.1242229E-1,3.1630394E-1,8.253216E-1,1.234074E0,9.130331E-1,4.6500513E-1,6.1380875E-1,1.2397512E0,-4.840179E-1,1.557024E-1,-2.0516501E-1,-8.226031E-1,1.3351687E0,1.0130236E0,-3.278918E-2,1.14899844E-1,9.221248E-2,3.1951582E-1,1.3322451E0,7.503976E-2,9.424192E-1,7.742554E-2,4.7905657E-1,7.438897E-1,6.3836366E-1,3.5578457E-1,6.7756237E-3,2.4673292E-1,2.5814328E-1,5.133248E-1,7.7947253E-1,1.2832952E0,1.24863E0,-1.7101549E-3,1.1517191E0,7.4381894E-1,3.6488223E-1,9.748732E-1,5.5589348E-2,1.0949441E-1,1.348741E-1,-9.5735304E-2,-2.2931392E-3,-5.7875574E-2,1.32443225E-2,1.2585044E-1,2.1860784E-2,-2.330409E-2,-9.1237746E-2,-4.7869787E-2,5.57979E-2,1.3738374E-1,1.8743915E-2,1.1470101E-1,-1.4144318E-2,3.913636E-3,1.2624702E-2,-4.8661027E-2,2.9381627E-2,2.0089005E-3,2.7981684E-2,5.208484E-2,1.4177085E-1,1.1431589E-1,4.458595E-2,-3.2077644E-2,2.7208105E-2,1.0013348E-1,-4.5282148E-2,7.881391E-2,4.4030946E-2,1.08887725E-1,7.833954E-2,7.5294E-3,5.5313487E-2,9.728178E-2,2.3498666E-2,4.6613947E-2,-1.4186562E-3,1.03456296E-1,1.9817771E-2,4.242377E-2,2.4059568E-2,9.134641E-2,5.2263595E-2,-7.7931136E-2,7.982164E-2,-1.1699893E-2,9.245136E-2,1.4025612E-1,9.611305E-2,1.3131891E-1,1.2834257E-1,8.638273E-2,8.856847E-2,1.1148664E-2,4.0011358E-2,-3.1471565E-2,-1.3968999E-2,1.0741831E-1],"categories":[],"categories_nodes":[],"categories_segments":[],"categories_sizes":[],"default_left":[0,0,0,0,0,0,0,0,0,0,0,0,0,0,0,0,0,0,0,0,0,0,0,0,0,0,0,0,0,0,0,0,0,0,0,0,0,0,0,0,0,0,0,0,0,0,0,0,0,0,0,0,0,0,0,0,0,0,0,0,0,0,0,0,0,0,0,0,0,0,0,0,0,0,0,0,0,0,0,0,0,0,0,0,0,0,0,0,0,0,0,0,0,0,0,0,0,0,0,0,0,0,0,0,0,0,0,0,0,0,0,0,0,0,0,0,0,0,0,0,0,0,0,0,0],"id":4,"left_children":[1,3,5,7,9,11,13,15,17,19,21,23,25,27,29,31,33,35,37,39,41,43,45,47,49,51,53,55,57,59,61,63,65,67,69,71,73,75,77,79,81,83,85,87,89,91,93,95,97,99,101,103,105,107,109,111,113,115,-1,117,119,121,123,-1,-1,-1,-1,-1,-1,-1,-1,-1,-1,-1,-1,-1,-1,-1,-1,-1,-1,-1,-1,-1,-1,-1,-1,-1,-1,-1,-1,-1,-1,-1,-1,-1,-1,-1,-1,-1,-1,-1,-1,-1,-1,-1,-1,-1,-1,-1,-1,-1,-1,-1,-1,-1,-1,-1,-1,-1,-1,-1,-1,-1,-1],"loss_changes":[1.6659092E3,1.3689764E3,3.0101282E2,6.550104E2,4.495872E2,9.334296E1,4.360742E1,6.855885E2,5.9451514E2,2.644914E2,1.1149475E1,1.8967285E1,5.0203537E1,2.0605347E1,2.2654877E1,5.345691E1,8.960525E1,5.1216504E2,5.231659E0,7.5022964E1,4.905829E1,3.5739746E0,4.745186E0,1.3135101E1,1.7649689E1,3.3405006E1,2.8339676E1,1.9041748E1,2.7127686E0,4.9755173E0,2.7773827E1,4.4477966E1,3.729637E1,3.7823975E1,7.3611298E0,3.8582422E2,4.2825134E1,1.6628265E0,2.8943573E1,5.3779633E1,4.7003395E1,1.6591362E1,4.5421814E1,3.1433716E0,6.4243984E-1,2.3389664E0,3.4556797E0,1.2661209E1,7.681732E0,6.7419434E0,2.3290466E1,2.8428003E1,8.849449E0,2.1863808E1,7.211273E0,1.4715271E1,2.3539276E0,1.4494781E0,0E0,1.0935669E0,7.734455E0,1.1191944E1,1.0094887E1,0E0,0E0,0E0,0E0,0E0,0E0,0E0,0E0,0E0,0E0,0E0,0E0,0E0,0E0,0E0,0E0,0E0,0E0,0E0,0E0,0E0,0E0,0E0,0E0,0E0,0E0,0E0,0E0,0E0,0E0,0E0,0E0,0E0,0E0,0E0,0E0,0E0,0E0,0E0,0E0,0E0,0E0,0E0,0E0,0E0,0E0,0E0,0E0,0E0,0E0,0E0,0E0,0E0,0E0,0E0,0E0,0E0,0E0,0E0,0E0,0E0,0E0],"parents":[2147483647,0,0,1,1,2,2,3,3,4,4,5,5,6,6,7,7,8,8,9,9,10,10,11,11,12,12,13,13,14,14,15,15,16,16,17,17,18,18,19,19,20,20,21,21,22,22,23,23,24,24,25,25,26,26,27,27,28,28,29,29,30,30,31,31,32,32,33,33,34,34,35,35,36,36,37,37,38,38,39,39,40,40,41,41,42,42,43,43,44,44,45,45,46,46,47,47,48,48,49,49,50,50,51,51,52,52,53,53,54,54,55,55,56,56,57,57,59,59,60,60,61,61,62,62],"right_children":[2,4,6,8,10,12,14,16,18,20,22,24,26,28,30,32,34,36,38,40,42,44,46,48,50,52,54,56,58,60,62,64,66,68,70,72,74,76,78,80,82,84,86,88,90,92,94,96,98,100,102,104,106,108,110,112,114,116,-1,118,120,122,124,-1,-1,-1,-1,-1,-1,-1,-1,-1,-1,-1,-1,-1,-1,-1,-1,-1,-1,-1,-1,-1,-1,-1,-1,-1,-1,-1,-1,-1,-1,-1,-1,-1,-1,-1,-1,-1,-1,-1,-1,-1,-1,-1,-1,-1,-1,-1,-1,-1,-1,-1,-1,-1,-1,-1,-1,-1,-1,-1,-1,-1,-1],"split_conditions":[1E1,4.248611E0,3.1E1,2.9E1,1E0,5.5E1,2.8645833E0,1E0,1E0,9.6E0,7.263889E0,1E0,1E0,1E0,4.3E1,1E0,1E0,1E0,6.0486114E-1,1E0,1E0,8.3E1,8E0,1.9E1,3.1E1,4.0381947E0,2E1,1E2,1.3020834E0,3.3E1,6.2E1,1E0,1E0,1.5284722E0,1E0,3.402778E-1,4E0,3.9E1,9.375E-1,1E0,1E0,1E0,2.7625694E1,5E0,5.633333E0,2E0,2.4779861E1,1E0,1E0,2.2E1,1E0,1E0,1.1995833E1,1E0,1E0,1E0,5.9E1,5.2E1,-1.7101549E-3,6.3784723E0,6.1E1,1E0,2E0,5.5589348E-2,1.0949441E-1,1.348741E-1,-9.5735304E-2,-2.2931392E-3,-5.7875574E-2,1.32443225E-2,1.2585044E-1,2.1860784E-2,-2.330409E-2,-9.1237746E-2,-4.7869787E-2,5.57979E-2,1.3738374E-1,1.8743915E-2,1.1470101E-1,-1.4144318E-2,3.913636E-3,1.2624702E-2,-4.8661027E-2,2.9381627E-2,2.0089005E-3,2.7981684E-2,5.208484E-2,1.4177085E-1,1.1431589E-1,4.458595E-2,-3.2077644E-2,2.7208105E-2,1.0013348E-1,-4.5282148E-2,7.881391E-2,4.4030946E-2,1.08887725E-1,7.833954E-2,7.5294E-3,5.5313487E-2,9.728178E-2,2.3498666E-2,4.6613947E-2,-1.4186562E-3,1.03456296E-1,1.9817771E-2,4.242377E-2,2.4059568E-2,9.134641E-2,5.2263595E-2,-7.7931136E-2,7.982164E-2,-1.1699893E-2,9.245136E-2,1.4025612E-1,9.611305E-2,1.3131891E-1,1.2834257E-1,8.638273E-2,8.856847E-2,1.1148664E-2,4.0011358E-2,-3.1471565E-2,-1.3968999E-2,1.0741831E-1],"split_indices":[6,5,6,0,38,0,5,9,38,5,5,35,1,20,0,43,1,26,5,1,10,0,6,6,0,5,6,6,5,0,6,32,20,5,38,5,6,0,5,10,21,9,5,6,5,4,5,38,32,6,1,38,5,38,33,36,0,0,0,5,6,38,4,0,0,0,0,0,0,0,0,0,0,0,0,0,0,0,0,0,0,0,0,0,0,0,0,0,0,0,0,0,0,0,0,0,0,0,0,0,0,0,0,0,0,0,0,0,0,0,0,0,0,0,0,0,0,0,0,0,0,0,0,0,0],"split_type":[0,0,0,0,0,0,0,0,0,0,0,0,0,0,0,0,0,0,0,0,0,0,0,0,0,0,0,0,0,0,0,0,0,0,0,0,0,0,0,0,0,0,0,0,0,0,0,0,0,0,0,0,0,0,0,0,0,0,0,0,0,0,0,0,0,0,0,0,0,0,0,0,0,0,0,0,0,0,0,0,0,0,0,0,0,0,0,0,0,0,0,0,0,0,0,0,0,0,0,0,0,0,0,0,0,0,0,0,0,0,0,0,0,0,0,0,0,0,0,0,0,0,0,0,0],"sum_hessian":[6.777454E4,5.8287848E4,9.486695E3,3.732229E4,2.0965557E4,7.6930005E3,1.7936948E3,2.924062E3,3.439823E4,2.0597004E4,3.6855322E2,2.8559395E3,4.837061E3,1.1002693E3,6.934255E2,1.7663918E3,1.1576702E3,3.4055793E4,3.4243637E2,1.3756388E4,6.840615E3,2.9620755E2,7.2345665E1,8.471905E2,2.0087489E3,2.3533286E3,2.4837322E3,9.534881E2,1.4678123E2,1.434003E2,5.500252E2,1.6170333E3,1.4935858E2,8.651913E2,2.9247885E2,3.2655547E4,1.4002456E3,7.983739E1,2.62599E2,6.879885E3,6.876503E3,1.1404613E3,5.700154E3,2.9380496E2,2.4025798E0,6.512286E1,7.2228017E0,5.55129E2,2.9206146E2,2.5439404E2,1.7543549E3,1.31781E3,1.0355186E3,1.9194268E3,5.6430554E2,8.691745E2,8.431361E1,1.4509525E2,1.6859882E0,5.7079815E1,8.632049E1,4.6117902E2,8.884619E1,1.4452241E3,1.718092E2,1.4266753E2,6.69105E0,1.4767978E2,7.1751154E2,2.8753455E2,4.9442883E0,2.015087E3,3.0640459E4,1.1090754E3,2.9117014E2,4.515314E0,7.5322075E1,3.70021E1,2.255969E2,2.7399001E3,4.139985E3,6.749959E3,1.2654427E2,2.9968643E2,8.407749E2,4.7633086E3,9.368452E2,1.978726E2,9.593236E1,1.175182E0,1.2273977E0,5.715092E0,5.9407772E1,4.344405E0,2.8783967E0,5.235833E2,3.154571E1,2.7560495E2,1.645653E1,2.0484685E2,4.95472E1,8.3904236E2,9.153125E2,1.2924364E3,2.5373625E1,8.1476245E2,2.2075615E2,1.8707019E3,4.872484E1,5.608612E2,3.444328E0,8.514809E2,1.7693584E1,2.321846E1,6.1095142E1,2.952034E1,1.15574905E2,3.67906E1,2.0289215E1,7.017569E1,1.6144804E1,4.3884015E2,2.2338867E1,7.2354608E0,8.1610725E1],"tree_param":{"num_deleted":"0","num_feature":"44","num_nodes":"125","size_leaf_vector":"1"}},{"base_weights":[1.8698374E-4,-1.9349074E-1,2.8899577E-1,-2.501249E-1,1.03879765E-1,2.0801911E-1,5.20145E-1,-2.6418334E-1,9.2031014E-1,4.2676155E-2,2.688885E-1,1.8217432E-1,1.0829191E0,4.6545854E-1,8.347087E-1,-2.4299818E-1,-8.874677E-1,1.1343442E0,5.8784884E-1,1.17209405E-1,-6.2735856E-2,3.6219877E-1,2.0848815E-1,1.378984E-1,3.255342E-1,1.1520139E0,8.878496E-1,5.135522E-1,2.711728E-1,1.1251729E0,7.682745E-1,3.410311E-1,-2.622791E-1,-7.8694427E-1,-1.1011113E0,1.0158682E0,1.2255867E0,3.8461295E-1,1.0986813E0,-2.1670433E-2,1.5827703E-1,-4.200622E-1,-3.349547E-2,3.1353593E-1,5.954945E-1,2.1275397E-1,-1.0686076E0,5.67962E-2,2.16228E-1,2.9150227E-1,5.0814974E-1,1.1624439E0,-2.7865362E-1,9.409018E-1,2.1278201E-1,5.939554E-1,4.1929054E-1,2.4974893E-1,5.3305864E-1,2.0213139E-1,1.1520373E0,7.949119E-1,2.1262279E-1,1.3445253E-2,7.180541E-2,-1.6739776E-2,-3.5233665E-2,-8.045762E-2,6.759432E-2,-1.1357186E-1,2.697124E-2,9.045651E-2,1.3966988E-1,1.0392827E-1,1.296263E-1,1.1629353E-2,9.584578E-2,1.1896434E-1,-1.1648758E-1,6.859024E-3,-1.37014985E-2,2.0562602E-2,6.896671E-3,-2.9769396E-2,-7.802989E-2,9.717195E-3,-7.467901E-3,4.329687E-2,2.1916993E-2,5.2281626E-2,1.01728156E-1,3.4825593E-2,1.6916104E-2,-3.1168351E-2,-1.3176052E-1,-9.19195E-4,1.5535535E-2,2.6153225E-2,-1.7865459E-3,4.455268E-2,2.633499E-2,6.0175993E-2,2.6839022E-2,1.0245066E-1,1.2283404E-1,-8.0397554E-2,4.8965167E-2,8.476635E-2,1.0520381E-1,5.5266887E-2,-4.0455338E-2,6.0775395E-2,2.1792904E-2,3.7027713E-2,5.4859277E-2,2.5941296E-2,-3.6433827E-2,3.828486E-2,1.0348415E-1,5.838842E-2,-7.113822E-2,7.268954E-2,1.2065424E-1,1.16760336E-1,7.582076E-2,5.1786155E-2,-4.2451132E-2],"categories":[],"categories_nodes":[],"categories_segments":[],"categories_sizes":[],"default_left":[0,0,0,0,0,0,0,0,0,0,0,0,0,0,0,0,0,0,0,0,0,0,0,0,0,0,0,0,0,0,0,0,0,0,0,0,0,0,0,0,0,0,0,0,0,0,0,0,0,0,0,0,0,0,0,0,0,0,0,0,0,0,0,0,0,0,0,0,0,0,0,0,0,0,0,0,0,0,0,0,0,0,0,0,0,0,0,0,0,0,0,0,0,0,0,0,0,0,0,0,0,0,0,0,0,0,0,0,0,0,0,0,0,0,0,0,0,0,0,0,0,0,0,0,0,0,0],"id":5,"left_children":[1,3,5,7,9,11,13,15,17,19,21,23,25,27,29,31,33,35,37,39,41,43,45,47,49,51,53,55,57,59,61,63,65,67,69,71,73,75,77,79,81,83,85,87,89,91,93,95,97,99,101,103,105,107,109,111,113,115,117,119,121,123,125,-1,-1,-1,-1,-1,-1,-1,-1,-1,-1,-1,-1,-1,-1,-1,-1,-1,-1,-1,-1,-1,-1,-1,-1,-1,-1,-1,-1,-1,-1,-1,-1,-1,-1,-1,-1,-1,-1,-1,-1,-1,-1,-1,-1,-1,-1,-1,-1,-1,-1,-1,-1,-1,-1,-1,-1,-1,-1,-1,-1,-1,-1,-1,-1],"loss_changes":[3.7842817E3,6.820427E2,5.082151E2,5.599951E2,6.542494E1,4.5460004E2,1.20801025E2,4.436526E2,2.8079254E1,3.7150238E1,9.8035965E0,1.2396747E2,6.7528687E0,5.595984E1,1.9244812E1,3.6618994E2,2.285675E1,1.4000549E0,1.6218899E1,1.5800575E1,2.045215E1,7.617584E0,6.037159E0,9.4827576E1,2.849878E1,6.6306763E0,5.3601227E0,3.621643E1,6.562668E0,4.5238953E0,1.2430908E1,8.086148E1,2.6887207E2,2.0009949E1,1.695514E1,3.4966736E0,4.0911865E-1,1.7781668E1,1.0668312E1,6.5995173E0,9.025856E0,6.295267E0,9.756742E0,6.3393784E0,3.071022E0,6.224415E0,2.8975248E-1,4.7713303E1,8.0542145E1,1.674057E1,1.6059464E1,2.557251E0,1.953845E0,5.9677887E-1,2.8683174E0,1.3327759E1,1.38550415E1,6.6524963E0,6.339472E0,2.7302475E0,3.4374542E0,1.0221985E1,8.058806E0,0E0,0E0,0E0,0E0,0E0,0E0,0E0,0E0,0E0,0E0,0E0,0E0,0E0,0E0,0E0,0E0,0E0,0E0,0E0,0E0,0E0,0E0,0E0,0E0,0E0,0E0,0E0,0E0,0E0,0E0,0E0,0E0,0E0,0E0,0E0,0E0,0E0,0E0,0E0,0E0,0E0,0E0,0E0,0E0,0E0,0E0,0E0,0E0,0E0,0E0,0E0,0E0,0E0,0E0,0E0,0E0,0E0,0E0,0E0,0E0,0E0,0E0,0E0,0E0],"parents":[2147483647,0,0,1,1,2,2,3,3,4,4,5,5,6,6,7,7,8,8,9,9,10,10,11,11,12,12,13,13,14,14,15,15,16,16,17,17,18,18,19,19,20,20,21,21,22,22,23,23,24,24,25,25,26,26,27,27,28,28,29,29,30,30,31,31,32,32,33,33,34,34,35,35,36,36,37,37,38,38,39,39,40,40,41,41,42,42,43,43,44,44,45,45,46,46,47,47,48,48,49,49,50,50,51,51,52,52,53,53,54,54,55,55,56,56,57,57,58,58,59,59,60,60,61,61,62,62],"right_children":[2,4,6,8,10,12,14,16,18,20,22,24,26,28,30,32,34,36,38,40,42,44,46,48,50,52,54,56,58,60,62,64,66,68,70,72,74,76,78,80,82,84,86,88,90,92,94,96,98,100,102,104,106,108,110,112,114,116,118,120,122,124,126,-1,-1,-1,-1,-1,-1,-1,-1,-1,-1,-1,-1,-1,-1,-1,-1,-1,-1,-1,-1,-1,-1,-1,-1,-1,-1,-1,-1,-1,-1,-1,-1,-1,-1,-1,-1,-1,-1,-1,-1,-1,-1,-1,-1,-1,-1,-1,-1,-1,-1,-1,-1,-1,-1,-1,-1,-1,-1,-1,-1,-1,-1,-1,-1],"split_conditions":[1E0,1E0,1E1,1E0,2.3E1,1E0,3.8E1,1E0,1E0,1E0,1E0,1.8E1,6E0,7.3E1,3E0,2.4E1,1E0,1E0,1E0,1E1,9E0,8.2E1,5.6E1,3E0,2.9E1,8.8E1,1E0,1E0,3.1E1,1E0,7.7E1,1E0,1E0,2.9E1,1E0,1E0,5E0,1E0,2E1,8E0,1E0,1E0,5.5E1,1E0,1.1E1,6.1E1,2.7E1,1.1E1,7.8E1,5.3E1,1E0,1E0,9E0,1.3E1,1E0,1E0,2.3E1,3.5E1,2.3E1,5.4E1,4.4E1,3.3E1,5.8E1,1.3445253E-2,7.180541E-2,-1.6739776E-2,-3.5233665E-2,-8.045762E-2,6.759432E-2,-1.1357186E-1,2.697124E-2,9.045651E-2,1.3966988E-1,1.0392827E-1,1.296263E-1,1.1629353E-2,9.584578E-2,1.1896434E-1,-1.1648758E-1,6.859024E-3,-1.37014985E-2,2.0562602E-2,6.896671E-3,-2.9769396E-2,-7.802989E-2,9.717195E-3,-7.467901E-3,4.329687E-2,2.1916993E-2,5.2281626E-2,1.01728156E-1,3.4825593E-2,1.6916104E-2,-3.1168351E-2,-1.3176052E-1,-9.19195E-4,1.5535535E-2,2.6153225E-2,-1.7865459E-3,4.455268E-2,2.633499E-2,6.0175993E-2,2.6839022E-2,1.0245066E-1,1.2283404E-1,-8.0397554E-2,4.8965167E-2,8.476635E-2,1.0520381E-1,5.5266887E-2,-4.0455338E-2,6.0775395E-2,2.1792904E-2,3.7027713E-2,5.4859277E-2,2.5941296E-2,-3.6433827E-2,3.828486E-2,1.0348415E-1,5.838842E-2,-7.113822E-2,7.268954E-2,1.2065424E-1,1.16760336E-1,7.582076E-2,5.1786155E-2,-4.2451132E-2],"split_indices":[12,17,6,32,7,38,6,26,6,6,6,7,6,0,7,0,42,42,39,7,7,0,6,6,7,0,17,39,7,1,0,1,6,6,16,43,4,42,6,7,14,14,0,1,4,0,7,7,0,0,8,16,4,7,39,8,6,6,6,6,6,0,6,0,0,0,0,0,0,0,0,0,0,0,0,0,0,0,0,0,0,0,0,0,0,0,0,0,0,0,0,0,0,0,0,0,0,0,0,0,0,0,0,0,0,0,0,0,0,0,0,0,0,0,0,0,0,0,0,0,0,0,0,0,0,0,0],"split_type":[0,0,0,0,0,0,0,0,0,0,0,0,0,0,0,0,0,0,0,0,0,0,0,0,0,0,0,0,0,0,0,0,0,0,0,0,0,0,0,0,0,0,0,0,0,0,0,0,0,0,0,0,0,0,0,0,0,0,0,0,0,0,0,0,0,0,0,0,0,0,0,0,0,0,0,0,0,0,0,0,0,0,0,0,0,0,0,0,0,0,0,0,0,0,0,0,0,0,0,0,0,0,0,0,0,0,0,0,0,0,0,0,0,0,0,0,0,0,0,0,0,0,0,0,0,0,0],"sum_hessian":[6.7651984E4,4.0495605E4,2.715638E4,3.4017195E4,6.4784116E3,2.011245E4,7.043932E3,3.361422E4,4.0297583E2,4.7265425E3,1.7518694E3,1.9536543E4,5.759065E2,6.002828E3,1.041104E3,3.2510588E4,1.103631E3,2.4368362E2,1.5929222E2,2.7687449E3,1.9577974E3,6.86431E2,1.0654385E3,1.4928055E4,4.608488E3,4.2164993E2,1.5425658E2,4.810412E3,1.1924163E3,1.9082796E2,8.50276E2,1.0384576E3,3.1472129E4,7.5368933E2,3.4994168E2,1.1129861E2,1.3238501E2,1.1520898E2,4.4083244E1,6.3199115E2,2.136754E3,1.4707918E2,1.8107183E3,5.6990027E2,1.1653077E2,1.062722E3,2.7163463E0,7.3350713E3,7.592984E3,3.886755E3,7.2173303E2,4.1878433E2,2.8655798E0,1.4265205E2,1.1604519E1,2.593181E3,2.2172312E3,1.1040516E3,8.8364586E1,5.6379166E0,1.8519005E2,8.1096826E2,3.9307735E1,6.717492E2,3.6670844E2,1.5327011E4,1.6145119E4,7.451581E2,8.531252E0,3.4149203E2,8.449656E0,8.87387E1,2.2559902E1,4.0728626E1,9.165639E1,7.9322075E1,3.58869E1,4.283629E1,1.2469574E0,3.5477448E2,2.7721664E2,1.3955719E3,7.4118195E2,1.1114939E2,3.592979E1,4.336071E2,1.3771111E3,2.4995743E2,3.199428E2,1.0131301E2,1.5217753E1,2.5697275E2,8.057493E2,1.2297624E0,1.4865837E0,4.394042E3,2.941029E3,6.3616855E3,1.2312983E3,5.9834143E2,3.2884136E3,5.179846E2,2.037484E2,1.4073648E2,2.7804785E2,1.6743386E0,1.1912413E0,8.226374E1,6.038831E1,7.551586E0,4.0529327E0,2.5007961E3,9.2384674E1,1.6105847E3,6.0664636E2,1.0875148E3,1.653687E1,6.936343E1,1.900116E1,4.230746E0,1.4071708E0,2.2673332E1,1.6251671E2,6.994506E1,7.410232E2,2.6702353E1,1.2605384E1],"tree_param":{"num_deleted":"0","num_feature":"44","num_nodes":"127","size_leaf_vector":"1"}},{"base_weights":[-1.8749125E-3,-7.1755454E-2,2.643541E-1,-1.7487822E-1,1.0082996E-1,2.0317003E-1,5.8503467E-1,-1.8980487E-1,8.873923E-1,8.340774E-2,1.128357E0,1.8841034E-1,8.5663784E-1,8.8259226E-1,4.9827358E-1,-2.0349453E-1,8.6153114E-1,1.0475285E0,-4.979993E-1,-9.845203E-3,1.9535151E-1,1.2195039E0,7.3983747E-1,1.5237656E-1,3.601446E-1,9.5689696E-1,3.9687845E-1,7.7789253E-1,1.0977807E0,4.1245684E-1,5.917265E-1,-1.8098082E-1,-7.5732887E-1,8.88049E-1,-1.3334768E0,1.3155426E-1,8.5917604E-1,-6.167225E-1,1.0167594E-1,-2.0643362E-1,1.634934E-2,1.3932434E-1,3.6703223E-1,1.2820343E0,9.800066E-1,-4.265021E-3,8.201558E-1,5.658601E-1,1.3272662E-1,-4.322714E-2,3.8174736E-1,1.1759486E0,8.498032E-1,1.1427791E0,7.711592E-2,6.8756E-1,1.0174495E0,1.1605685E0,7.734189E-1,3.8598403E-1,8.5271114E-1,6.532612E-1,4.94884E-1,1.0743114E-2,-2.184898E-2,-8.7112494E-2,-5.201098E-2,1.05898164E-1,6.594767E-2,-1.6054487E-1,-2.2106983E-2,7.873344E-2,1.5817069E-1,-8.57354E-2,1.672624E-2,2.3173956E-2,-2.7557481E-2,-1.1790785E-2,4.1775713E-3,1.0766208E-2,3.185195E-2,2.7080331E-2,4.2945247E-2,1.3073036E-1,1.0022091E-1,8.0245525E-2,1.1755575E-1,8.96364E-2,-1.16716795E-1,8.925736E-2,1.4169516E-2,8.261512E-2,4.438047E-2,7.559775E-3,2.498209E-2,1.1406576E-2,-6.2130596E-2,5.5944633E-2,3.636072E-2,9.8069385E-2,1.31715E-1,9.067655E-2,5.4532606E-2,3.0418014E-2,1.2397467E-1,-1.1269523E-1,2.7443318E-2,7.035326E-2,-1.4873047E-2,1.0424315E-1,-4.964621E-2,7.289811E-2,1.2042301E-1,5.6939404E-2,1.3245064E-1,4.0757902E-2,2.0411402E-5,2.1279661E-2,9.571665E-2,5.290069E-2,7.233349E-2,3.9561793E-2,8.2723305E-2],"categories":[],"categories_nodes":[],"categories_segments":[],"categories_sizes":[],"default_left":[0,0,0,0,0,0,0,0,0,0,0,0,0,0,0,0,0,0,0,0,0,0,0,0,0,0,0,0,0,0,0,0,0,0,0,0,0,0,0,0,0,0,0,0,0,0,0,0,0,0,0,0,0,0,0,0,0,0,0,0,0,0,0,0,0,0,0,0,0,0,0,0,0,0,0,0,0,0,0,0,0,0,0,0,0,0,0,0,0,0,0,0,0,0,0,0,0,0,0,0,0,0,0,0,0,0,0,0,0,0,0,0,0,0,0,0,0,0,0,0,0,0,0],"id":6,"left_children":[1,3,5,7,9,11,13,15,17,19,21,23,25,27,29,31,33,35,37,39,41,43,45,47,49,51,53,55,57,59,61,63,65,67,69,-1,71,73,-1,75,77,79,81,83,85,87,89,91,93,95,97,99,101,103,105,107,109,111,113,115,117,119,121,-1,-1,-1,-1,-1,-1,-1,-1,-1,-1,-1,-1,-1,-1,-1,-1,-1,-1,-1,-1,-1,-1,-1,-1,-1,-1,-1,-1,-1,-1,-1,-1,-1,-1,-1,-1,-1,-1,-1,-1,-1,-1,-1,-1,-1,-1,-1,-1,-1,-1,-1,-1,-1,-1,-1,-1,-1,-1,-1,-1],"loss_changes":[1.2530596E3,9.4951355E2,2.746369E2,5.2969867E2,3.571376E2,1.1327606E2,5.7470703E1,4.741759E2,1.0322586E2,2.048527E2,1.0876862E1,7.11272E1,1.1581909E1,1.0526184E1,1.3702911E1,4.0524426E2,2.5835968E1,1.9834381E1,9.375115E0,5.513643E1,8.5729645E1,2.755249E0,3.9329643E0,7.718942E1,1.7394104E1,3.9817963E0,1.14001045E1,6.727524E0,2.4197998E0,1.0275177E1,4.6239624E0,3.3800928E2,3.3821228E1,1.5674652E1,1.2955227E0,0E0,1.1564331E1,8.770674E0,0E0,3.82038E1,3.225894E1,3.8123672E1,1.3060181E1,1.6888428E-1,1.1296463E0,8.7968855E0,2.7894669E0,1.3329819E1,6.071782E1,9.370156E0,5.8985596E0,5.5869293E-1,2.0414581E0,7.9226875E-1,8.573851E0,3.4750366E0,3.9931488E0,1.6561584E0,2.553135E0,7.1652374E0,3.1906433E0,4.0101166E0,1.0450279E1,0E0,0E0,0E0,0E0,0E0,0E0,0E0,0E0,0E0,0E0,0E0,0E0,0E0,0E0,0E0,0E0,0E0,0E0,0E0,0E0,0E0,0E0,0E0,0E0,0E0,0E0,0E0,0E0,0E0,0E0,0E0,0E0,0E0,0E0,0E0,0E0,0E0,0E0,0E0,0E0,0E0,0E0,0E0,0E0,0E0,0E0,0E0,0E0,0E0,0E0,0E0,0E0,0E0,0E0,0E0,0E0,0E0,0E0,0E0,0E0],"parents":[2147483647,0,0,1,1,2,2,3,3,4,4,5,5,6,6,7,7,8,8,9,9,10,10,11,11,12,12,13,13,14,14,15,15,16,16,17,17,18,18,19,19,20,20,21,21,22,22,23,23,24,24,25,25,26,26,27,27,28,28,29,29,30,30,31,31,32,32,33,33,34,34,36,36,37,37,39,39,40,40,41,41,42,42,43,43,44,44,45,45,46,46,47,47,48,48,49,49,50,50,51,51,52,52,53,53,54,54,55,55,56,56,57,57,58,58,59,59,60,60,61,61,62,62],"right_children":[2,4,6,8,10,12,14,16,18,20,22,24,26,28,30,32,34,36,38,40,42,44,46,48,50,52,54,56,58,60,62,64,66,68,70,-1,72,74,-1,76,78,80,82,84,86,88,90,92,94,96,98,100,102,104,106,108,110,112,114,116,118,120,122,-1,-1,-1,-1,-1,-1,-1,-1,-1,-1,-1,-1,-1,-1,-1,-1,-1,-1,-1,-1,-1,-1,-1,-1,-1,-1,-1,-1,-1,-1,-1,-1,-1,-1,-1,-1,-1,-1,-1,-1,-1,-1,-1,-1,-1,-1,-1,-1,-1,-1,-1,-1,-1,-1,-1,-1,-1,-1,-1,-1],"split_conditions":[7E0,4.0729165E0,2.7E1,1E0,1E0,1E0,6E0,1E0,1E0,1.6E1,6.90625E0,7.8881946E0,1.6E1,6.6E1,3.8E1,1E0,1E0,2.5625E-1,1E0,6E0,1.4870139E1,5E0,2E0,3E0,1E1,1E0,2.9493055E0,1E0,1E0,3.4E1,3.8881946E0,5.4930556E-1,8E0,1E0,1E1,1.3155426E-1,1E0,1E1,1.0167594E-1,1E0,1E0,2.7E1,2.3E1,2E1,1.3E1,2E1,6E0,2.375E-1,1.4E1,1.7119444E1,2E0,1.3E1,6.061111E0,7E0,2E0,1E0,1.2680556E0,3E0,1E0,2.9E1,1E0,9.375E-1,6.6E1,1.0743114E-2,-2.184898E-2,-8.7112494E-2,-5.201098E-2,1.05898164E-1,6.594767E-2,-1.6054487E-1,-2.2106983E-2,7.873344E-2,1.5817069E-1,-8.57354E-2,1.672624E-2,2.3173956E-2,-2.7557481E-2,-1.1790785E-2,4.1775713E-3,1.0766208E-2,3.185195E-2,2.7080331E-2,4.2945247E-2,1.3073036E-1,1.0022091E-1,8.0245525E-2,1.1755575E-1,8.96364E-2,-1.16716795E-1,8.925736E-2,1.4169516E-2,8.261512E-2,4.438047E-2,7.559775E-3,2.498209E-2,1.1406576E-2,-6.2130596E-2,5.5944633E-2,3.636072E-2,9.8069385E-2,1.31715E-1,9.067655E-2,5.4532606E-2,3.0418014E-2,1.2397467E-1,-1.1269523E-1,2.7443318E-2,7.035326E-2,-1.4873047E-2,1.0424315E-1,-4.964621E-2,7.289811E-2,1.2042301E-1,5.6939404E-2,1.3245064E-1,4.0757902E-2,2.0411402E-5,2.1279661E-2,9.571665E-2,5.290069E-2,7.233349E-2,3.9561793E-2,8.2723305E-2],"split_indices":[6,5,6,19,38,38,7,32,9,7,5,5,6,6,6,26,9,5,41,7,5,6,4,7,7,9,5,20,39,7,5,5,7,6,4,0,43,7,0,9,35,7,7,7,7,7,6,5,6,5,4,7,5,7,4,16,5,4,35,7,35,5,6,0,0,0,0,0,0,0,0,0,0,0,0,0,0,0,0,0,0,0,0,0,0,0,0,0,0,0,0,0,0,0,0,0,0,0,0,0,0,0,0,0,0,0,0,0,0,0,0,0,0,0,0,0,0,0,0,0,0,0,0],"split_type":[0,0,0,0,0,0,0,0,0,0,0,0,0,0,0,0,0,0,0,0,0,0,0,0,0,0,0,0,0,0,0,0,0,0,0,0,0,0,0,0,0,0,0,0,0,0,0,0,0,0,0,0,0,0,0,0,0,0,0,0,0,0,0,0,0,0,0,0,0,0,0,0,0,0,0,0,0,0,0,0,0,0,0,0,0,0,0,0,0,0,0,0,0,0,0,0,0,0,0,0,0,0,0,0,0,0,0,0,0,0,0,0,0,0,0,0,0,0,0,0,0,0,0],"sum_hessian":[6.735148E4,5.3349008E4,1.4002468E4,3.339494E4,1.9954068E4,1.1760301E4,2.2421665E3,3.2933E4,4.6194116E2,1.9622441E4,3.3162686E2,1.1501802E4,2.584996E2,5.04105E2,1.7380615E3,3.2510479E4,4.2251923E2,4.1429678E2,4.7644352E1,1.0705396E4,8.917045E3,2.6687823E2,6.474862E1,9.508572E3,1.9932291E3,2.1133313E2,4.7166454E1,3.4221542E2,1.6188957E2,9.088699E2,8.291916E2,3.1241807E4,1.2686725E3,4.1806403E2,4.455211E0,1.6851947E2,2.4577731E2,4.4731277E1,2.9130745E0,1.2579181E3,9.447478E3,6.7243857E3,2.1926592E3,2.0817328E2,5.8704964E1,6.400317E0,5.8348305E1,4.3011365E2,9.078459E3,1.01271225E2,1.8919579E3,6.611654E1,1.452166E2,1.33804455E1,3.3786007E1,2.5131813E2,9.089731E1,1.3347449E2,2.8415087E1,8.59089E2,4.978092E1,5.0351025E2,3.2568137E2,3.5952842E3,2.7646523E4,8.55574E2,4.1309848E2,2.3711212E2,1.8095189E2,3.2238038E0,1.2314074E0,2.2545033E2,2.0326979E1,3.415452E1,1.057676E1,1.711194E2,1.0867987E3,1.5037401E3,7.943738E3,5.7160156E3,1.0083702E3,8.6479834E2,1.327861E3,1.8756367E2,2.0609608E1,3.344342E1,2.5261543E1,3.7360635E0,2.6642535E0,5.2435802E1,5.9125004E0,1.3546246E2,2.9465118E2,6.10268E3,2.9757786E3,8.024073E1,2.1030495E1,1.7248433E2,1.7194735E3,3.1081743E1,3.5034794E1,1.2066432E2,2.4552279E1,1.8156034E0,1.1564842E1,4.093754E0,2.9692253E1,2.4676385E2,4.5542765E0,8.972807E1,1.1692302E0,1.3888197E1,1.1958629E2,2.2221436E1,6.193651E0,8.134951E2,4.559385E1,7.4118166E0,4.2369102E1,1.8464612E2,3.1886414E2,2.524653E2,7.321605E1],"tree_param":{"num_deleted":"0","num_feature":"44","num_nodes":"123","size_leaf_vector":"1"}},{"base_weights":[-1.1107355E-3,-1.696486E-1,2.5110236E-1,-2.4719082E-1,6.862724E-2,2.3290133E-1,9.328878E-1,-2.6029953E-1,8.872118E-1,-2.7211191E-2,1.8427923E-1,6.790468E-2,2.7379456E-1,9.677032E-1,7.058064E-1,-2.736222E-1,7.896712E-1,1.2115391E0,6.612866E-1,3.8370933E-2,-1.4564759E-1,1.4119047E-1,4.4825545E-1,-7.4437596E-3,2.7774137E-1,3.1349647E-1,7.2500564E-2,1.0475706E0,9.0396214E-1,1.0788292E0,4.7636676E-1,2.0479825E-1,-2.925395E-1,9.442826E-1,4.2490917E-1,1.22341864E-1,5.050446E-1,7.222832E-1,-4.4013005E-1,-7.127204E-3,1.4797252E-1,-1.8955216E-1,-6.6118105E-3,1.06101915E-1,2.6230478E-1,3.5876256E-1,5.716567E-1,1.2722667E-1,-9.138248E-2,1.1203837E-1,3.9588273E-1,5.933555E-1,2.8683132E-1,-1.3840428E-1,1.4115593E-1,9.801149E-1,1.3031434E-1,9.0771466E-1,-5.6294436E-3,1.1985072E-1,2.5970688E-1,1.0030822E0,3.170141E-1,5.8425404E-2,-4.282534E-2,-2.7453868E-2,-7.609821E-2,1.0620055E-1,7.791524E-2,1.5081132E-2,1.0671742E-1,9.860092E-3,6.803658E-2,7.472852E-2,-1.3137482E-1,-7.1314745E-2,4.0634077E-2,1.153574E-2,-5.762248E-3,1.31449E-2,7.300727E-2,3.5721164E-3,-2.1914072E-2,2.8467566E-2,-7.289942E-3,1.4119816E-2,1.9347541E-3,3.547324E-2,1.5314083E-2,2.128897E-2,6.0572304E-2,7.126262E-2,1.4333631E-2,5.796317E-2,7.128188E-3,-3.6049034E-2,-2.452259E-3,-1.6332159E-2,1.8104618E-2,4.0695302E-2,-1.3575979E-2,7.5825386E-2,4.98415E-2,3.841963E-2,2.4978288E-2,-2.0037873E-2,7.591799E-3,9.346369E-3,3.2049682E-2,8.7214194E-2,1.1074521E-1,9.146523E-2,3.505922E-2,-4.5181926E-2,6.7812495E-2,1.0975295E-1,7.489759E-3,-1.6815317E-3,6.0976233E-2],"categories":[],"categories_nodes":[],"categories_segments":[],"categories_sizes":[],"default_left":[0,0,0,0,0,0,0,0,0,0,0,0,0,0,0,0,0,0,0,0,0,0,0,0,0,0,0,0,0,0,0,0,0,0,0,0,0,0,0,0,0,0,0,0,0,0,0,0,0,0,0,0,0,0,0,0,0,0,0,0,0,0,0,0,0,0,0,0,0,0,0,0,0,0,0,0,0,0,0,0,0,0,0,0,0,0,0,0,0,0,0,0,0,0,0,0,0,0,0,0,0,0,0,0,0,0,0,0,0,0,0,0,0,0,0,0,0,0,0],"id":7,"left_children":[1,3,5,7,9,11,13,15,17,19,21,23,25,27,29,31,33,35,37,39,41,43,45,47,49,51,53,55,57,59,61,63,65,67,69,-1,71,73,75,77,79,81,83,85,87,89,91,93,95,97,99,101,103,105,107,109,-1,111,-1,-1,113,115,117,-1,-1,-1,-1,-1,-1,-1,-1,-1,-1,-1,-1,-1,-1,-1,-1,-1,-1,-1,-1,-1,-1,-1,-1,-1,-1,-1,-1,-1,-1,-1,-1,-1,-1,-1,-1,-1,-1,-1,-1,-1,-1,-1,-1,-1,-1,-1,-1,-1,-1,-1,-1,-1,-1,-1,-1],"loss_changes":[2.8562761E3,7.442274E2,3.3378638E2,4.5214014E2,1.09629105E2,1.7687598E2,4.847473E0,4.204718E2,2.4653015E1,4.2021732E1,5.0917145E1,8.235341E1,1.6788184E2,2.1271362E0,7.7612114E0,2.6856323E2,2.084253E1,5.6910706E-1,1.4221725E1,1.73662E1,1.1768101E1,1.6352951E1,6.7355423E0,4.3344196E1,2.6895966E1,1.3078369E2,5.0155205E1,3.2348022E0,1.2874451E0,3.2209396E0,4.85703E0,2.7146585E2,2.404458E2,4.2993927E0,1.98998E1,0E0,2.2092628E-1,1.0983246E1,2.943095E0,1.5232244E1,9.729893E0,9.774731E0,8.975269E0,9.102192E0,8.675198E0,1.3091244E1,1.5747887E1,3.722224E1,4.2490562E1,1.0940138E1,4.781166E0,2.3506592E1,5.7704956E1,1.131636E1,2.2316383E1,1.9365997E0,0E0,1.0006104E0,0E0,0E0,2.053956E0,1.1327238E0,4.779125E0,0E0,0E0,0E0,0E0,0E0,0E0,0E0,0E0,0E0,0E0,0E0,0E0,0E0,0E0,0E0,0E0,0E0,0E0,0E0,0E0,0E0,0E0,0E0,0E0,0E0,0E0,0E0,0E0,0E0,0E0,0E0,0E0,0E0,0E0,0E0,0E0,0E0,0E0,0E0,0E0,0E0,0E0,0E0,0E0,0E0,0E0,0E0,0E0,0E0,0E0,0E0,0E0,0E0,0E0,0E0,0E0],"parents":[2147483647,0,0,1,1,2,2,3,3,4,4,5,5,6,6,7,7,8,8,9,9,10,10,11,11,12,12,13,13,14,14,15,15,16,16,17,17,18,18,19,19,20,20,21,21,22,22,23,23,24,24,25,25,26,26,27,27,28,28,29,29,30,30,31,31,32,32,33,33,34,34,36,36,37,37,38,38,39,39,40,40,41,41,42,42,43,43,44,44,45,45,46,46,47,47,48,48,49,49,50,50,51,51,52,52,53,53,54,54,55,55,57,57,60,60,61,61,62,62],"right_children":[2,4,6,8,10,12,14,16,18,20,22,24,26,28,30,32,34,36,38,40,42,44,46,48,50,52,54,56,58,60,62,64,66,68,70,-1,72,74,76,78,80,82,84,86,88,90,92,94,96,98,100,102,104,106,108,110,-1,112,-1,-1,114,116,118,-1,-1,-1,-1,-1,-1,-1,-1,-1,-1,-1,-1,-1,-1,-1,-1,-1,-1,-1,-1,-1,-1,-1,-1,-1,-1,-1,-1,-1,-1,-1,-1,-1,-1,-1,-1,-1,-1,-1,-1,-1,-1,-1,-1,-1,-1,-1,-1,-1,-1,-1,-1,-1,-1,-1,-1],"split_conditions":[1E0,5.5659723E0,1E0,1E0,9.251389E0,1E0,6.13125E0,1E0,2.7708334E-1,1E0,2.7625694E1,1.5E1,7.8E1,5.9E1,1.5E1,2.5E1,1E0,7E1,1E0,1.7E1,2.3E1,2.6E1,1E0,1E0,5.6944447E0,4.0763888E-1,1.83125E0,1.4E1,3E1,7.3E1,1E0,1E0,1E0,3.1E1,1E0,1.22341864E-1,9.652778E-2,7.8E1,4.9090276E0,1E0,3.3E1,4.4E1,5.8E1,1E0,1E0,3.3E1,1E0,3.1E1,1E0,1E0,1E0,3E0,4.8E1,1.6E1,8.229167E0,4.111111E0,1.3031434E-1,1E0,-5.6294436E-3,1.1985072E-1,1E0,7.4E1,1.1358334E1,5.8425404E-2,-4.282534E-2,-2.7453868E-2,-7.609821E-2,1.0620055E-1,7.791524E-2,1.5081132E-2,1.0671742E-1,9.860092E-3,6.803658E-2,7.472852E-2,-1.3137482E-1,-7.1314745E-2,4.0634077E-2,1.153574E-2,-5.762248E-3,1.31449E-2,7.300727E-2,3.5721164E-3,-2.1914072E-2,2.8467566E-2,-7.289942E-3,1.4119816E-2,1.9347541E-3,3.547324E-2,1.5314083E-2,2.128897E-2,6.0572304E-2,7.126262E-2,1.4333631E-2,5.796317E-2,7.128188E-3,-3.6049034E-2,-2.452259E-3,-1.6332159E-2,1.8104618E-2,4.0695302E-2,-1.3575979E-2,7.5825386E-2,4.98415E-2,3.841963E-2,2.4978288E-2,-2.0037873E-2,7.591799E-3,9.346369E-3,3.2049682E-2,8.7214194E-2,1.1074521E-1,9.146523E-2,3.505922E-2,-4.5181926E-2,6.7812495E-2,1.0975295E-1,7.489759E-3,-1.6815317E-3,6.0976233E-2],"split_indices":[12,5,38,19,5,11,5,32,5,11,5,7,0,0,7,0,11,0,9,7,7,7,9,9,5,5,5,7,7,0,9,9,26,0,39,0,5,0,5,9,7,0,0,11,11,7,11,0,35,35,23,7,0,7,5,5,0,41,0,0,17,0,5,0,0,0,0,0,0,0,0,0,0,0,0,0,0,0,0,0,0,0,0,0,0,0,0,0,0,0,0,0,0,0,0,0,0,0,0,0,0,0,0,0,0,0,0,0,0,0,0,0,0,0,0,0,0,0,0],"split_type":[0,0,0,0,0,0,0,0,0,0,0,0,0,0,0,0,0,0,0,0,0,0,0,0,0,0,0,0,0,0,0,0,0,0,0,0,0,0,0,0,0,0,0,0,0,0,0,0,0,0,0,0,0,0,0,0,0,0,0,0,0,0,0,0,0,0,0,0,0,0,0,0,0,0,0,0,0,0,0,0,0,0,0,0,0,0,0,0,0,0,0,0,0,0,0,0,0,0,0,0,0,0,0,0,0,0,0,0,0,0,0,0,0,0,0,0,0,0,0],"sum_hessian":[6.719271E4,4.02779E4,2.6914812E4,3.0388512E4,9.889385E3,2.6216281E4,6.985316E2,3.0042127E4,3.4638477E2,5.408356E3,4.481029E3,5.207528E3,2.1008752E4,6.028439E2,9.56877E1,2.9666441E4,3.756866E2,1.4042905E2,2.059557E2,3.481314E3,1.9270419E3,3.8535498E3,6.274789E2,3.8323623E3,1.3751653E3,1.7547285E4,3.4614683E3,2.6072348E2,3.421204E2,3.50315E1,6.06562E1,1.1280531E3,2.8538389E4,2.6273328E2,1.12953354E2,1.3738725E2,3.0417953E0,1.9547453E2,1.0481178E1,2.4607395E3,1.0205744E3,1.4642875E3,4.6275443E2,2.989364E3,8.641857E2,3.6597458E2,2.6150433E2,1.471303E3,2.3610593E3,5.731805E2,8.0198474E2,1.5246254E3,1.6022659E4,8.498299E2,2.6116382E3,2.1010374E2,5.061974E1,3.4084317E2,1.2772497E0,3.0161577E1,4.8699236E0,1.2858779E1,4.779742E1,7.0534265E2,4.2271048E2,2.7483852E4,1.0545367E3,1.5021342E2,1.12519844E2,8.0032776E1,3.2920578E1,1.3875252E0,1.65427E0,1.9372856E2,1.7459728E0,8.044154E0,2.4370246E0,7.179497E2,1.7427898E3,9.9359595E2,2.6978462E1,1.6997461E2,1.2943129E3,8.517511E1,3.775793E2,2.1279001E3,8.6146375E2,4.6674756E2,3.9743817E2,2.3124591E2,1.3472867E2,1.9625035E2,6.5253975E1,1.6088931E2,1.3104137E3,4.6899304E2,1.8920663E3,1.1458569E2,4.5859482E2,7.858556E2,1.6129189E1,5.5451794E2,9.701074E2,4.413749E3,1.160891E4,6.592602E2,1.9056972E2,2.06422E3,5.474183E2,1.17944336E2,9.215942E1,3.3601712E2,4.826024E0,1.7737713E0,3.096152E0,1.1505581E1,1.3531979E0,2.2772186E1,2.5025236E1],"tree_param":{"num_deleted":"0","num_feature":"44","num_nodes":"119","size_leaf_vector":"1"}},{"base_weights":[-2.4085536E-3,-1.5429111E-1,2.2513813E-1,-2.3316126E-1,3.56949E-2,2.0758434E-1,8.8922435E-1,1.7832717E-1,-2.688615E-1,8.089683E-3,3.5372597E-1,5.703204E-2,2.450666E-1,1.0190897E0,8.340782E-1,5.1603055E-1,-3.560387E-1,-2.7797472E-1,7.535299E-1,8.931514E-2,-3.692939E-2,1.7976134E-1,4.472924E-1,2.5029166E-2,2.2936538E-1,2.9661795E-1,1.2652756E-1,1.0339767E0,2.520754E-1,8.123977E-1,1.3035164E0,5.508139E-1,-8.423138E-1,-5.162336E-1,1.8383564E-1,-2.6013833E-1,-7.239675E-1,1.1058457E0,5.530464E-1,4.985129E-1,5.294017E-2,-2.8776838E-2,-4.6578017E-1,-1.8054053E-2,3.6716363E-1,6.040982E-1,3.6894342E-1,3.49273E-2,-6.295931E-1,2.5389308E-1,-3.071762E-1,4.7010392E-1,2.6215518E-1,3.0162143E-2,2.3725866E-1,8.8651264E-1,1.152395E0,-6.1330587E-2,6.418855E-1,8.6181784E-1,6.551522E-1,1.3466972E-1,2.7770434E-2,4.8985027E-2,1.15005195E-1,-1.24884896E-1,1.8641813E-2,-6.820199E-3,-5.9679855E-2,7.1489573E-3,4.5909863E-2,-1.6130079E-2,-3.3762198E-2,-7.680405E-2,-9.374794E-3,8.779054E-2,1.263672E-1,5.782039E-2,-1.15992285E-1,5.1856935E-2,-1.1030324E-1,-4.429419E-3,1.2378189E-2,-6.328312E-3,7.025242E-3,-5.538432E-2,1.8745737E-2,-1.6985768E-2,4.7309477E-2,-3.223045E-2,4.551507E-2,5.1268823E-2,9.3288064E-2,3.1007914E-2,6.5161616E-2,1.2266407E-2,-2.268376E-3,-1.1810877E-1,-2.933501E-2,-4.5449097E-2,2.6973931E-2,6.785016E-2,-4.9006976E-2,4.9412172E-2,1.1880956E-2,3.5109513E-2,2.28748E-2,2.8423691E-2,4.0482634E-4,2.8369814E-2,1.4617765E-2,1.164389E-1,6.273087E-2,9.878067E-2,1.22404754E-1,9.444334E-2,1.2757698E-3,8.694594E-2,1.4450448E-2,7.649687E-2,2.726913E-2],"categories":[],"categories_nodes":[],"categories_segments":[],"categories_sizes":[],"default_left":[0,0,0,0,0,0,0,0,0,0,0,0,0,0,0,0,0,0,0,0,0,0,0,0,0,0,0,0,0,0,0,0,0,0,0,0,0,0,0,0,0,0,0,0,0,0,0,0,0,0,0,0,0,0,0,0,0,0,0,0,0,0,0,0,0,0,0,0,0,0,0,0,0,0,0,0,0,0,0,0,0,0,0,0,0,0,0,0,0,0,0,0,0,0,0,0,0,0,0,0,0,0,0,0,0,0,0,0,0,0,0,0,0,0,0,0,0,0,0,0,0],"id":8,"left_children":[1,3,5,7,9,11,13,15,17,19,21,23,25,27,29,31,33,35,37,39,41,43,45,47,49,51,53,55,57,59,61,63,65,67,69,71,73,75,77,79,81,83,85,87,89,91,93,95,97,99,101,103,105,107,109,111,113,-1,115,117,119,-1,-1,-1,-1,-1,-1,-1,-1,-1,-1,-1,-1,-1,-1,-1,-1,-1,-1,-1,-1,-1,-1,-1,-1,-1,-1,-1,-1,-1,-1,-1,-1,-1,-1,-1,-1,-1,-1,-1,-1,-1,-1,-1,-1,-1,-1,-1,-1,-1,-1,-1,-1,-1,-1,-1,-1,-1,-1,-1,-1],"loss_changes":[2.318099E3,6.027449E2,3.1280237E2,4.176145E2,1.0360162E2,1.4760266E2,4.0994873E0,4.0978998E2,2.4391138E2,3.9713093E1,1.5260811E1,2.8760088E1,1.2794971E2,2.0401154E0,3.9344788E0,6.6197876E1,7.616442E1,2.0604688E2,1.5729736E1,5.7618607E1,2.4417095E1,1.2288287E1,7.298271E0,2.8532013E1,1.0826721E1,8.714172E1,6.7746956E1,2.424347E0,2.1338906E0,3.1004333E0,5.1213074E-1,4.90148E1,1.49255905E1,2.4452362E1,6.2141705E0,1.9086829E2,2.7603577E1,1.8731003E0,7.1110497E0,1.0723732E1,2.4512234E1,2.3440428E1,7.599083E0,1.216814E1,1.047023E1,5.604721E0,6.633251E0,2.191661E1,1.1816544E1,8.896297E0,6.850899E0,2.0339783E1,3.6106506E1,2.2531958E1,1.2455002E1,5.912079E0,4.2282104E-2,0E0,7.579316E-1,1.8239441E0,4.7033577E0,0E0,0E0,0E0,0E0,0E0,0E0,0E0,0E0,0E0,0E0,0E0,0E0,0E0,0E0,0E0,0E0,0E0,0E0,0E0,0E0,0E0,0E0,0E0,0E0,0E0,0E0,0E0,0E0,0E0,0E0,0E0,0E0,0E0,0E0,0E0,0E0,0E0,0E0,0E0,0E0,0E0,0E0,0E0,0E0,0E0,0E0,0E0,0E0,0E0,0E0,0E0,0E0,0E0,0E0,0E0,0E0,0E0,0E0,0E0,0E0],"parents":[2147483647,0,0,1,1,2,2,3,3,4,4,5,5,6,6,7,7,8,8,9,9,10,10,11,11,12,12,13,13,14,14,15,15,16,16,17,17,18,18,19,19,20,20,21,21,22,22,23,23,24,24,25,25,26,26,27,27,28,28,29,29,30,30,31,31,32,32,33,33,34,34,35,35,36,36,37,37,38,38,39,39,40,40,41,41,42,42,43,43,44,44,45,45,46,46,47,47,48,48,49,49,50,50,51,51,52,52,53,53,54,54,55,55,56,56,58,58,59,59,60,60],"right_children":[2,4,6,8,10,12,14,16,18,20,22,24,26,28,30,32,34,36,38,40,42,44,46,48,50,52,54,56,58,60,62,64,66,68,70,72,74,76,78,80,82,84,86,88,90,92,94,96,98,100,102,104,106,108,110,112,114,-1,116,118,120,-1,-1,-1,-1,-1,-1,-1,-1,-1,-1,-1,-1,-1,-1,-1,-1,-1,-1,-1,-1,-1,-1,-1,-1,-1,-1,-1,-1,-1,-1,-1,-1,-1,-1,-1,-1,-1,-1,-1,-1,-1,-1,-1,-1,-1,-1,-1,-1,-1,-1,-1,-1,-1,-1,-1,-1,-1,-1,-1,-1],"split_conditions":[1E0,4.797222E0,1E0,2.9E1,2.2602083E1,1E0,5.4E1,1E0,1E0,1E0,5.7E1,8.923611E0,7E1,9.789583E0,1E0,1E0,1E0,1E0,2.375E-1,4.5E1,1E0,1E0,5E0,1E0,1E0,7.361111E-1,3.9791667E0,4.0055556E0,1E0,5.263889E0,2.2602083E1,1E0,4.2847222E-1,1.5284722E0,1E0,1E0,2.2125E0,1E0,8.1E1,1E0,7.7145834E0,9.6E0,8.8E1,1E0,2.4779861E1,1E0,4.7041668E1,1E0,6.3E1,2.4E1,1E0,1E0,4.5E1,5.6875E-1,1E0,1.5888889E0,5E0,-6.1330587E-2,4.2E1,1E0,1E1,1.3466972E-1,2.7770434E-2,4.8985027E-2,1.15005195E-1,-1.24884896E-1,1.8641813E-2,-6.820199E-3,-5.9679855E-2,7.1489573E-3,4.5909863E-2,-1.6130079E-2,-3.3762198E-2,-7.680405E-2,-9.374794E-3,8.779054E-2,1.263672E-1,5.782039E-2,-1.15992285E-1,5.1856935E-2,-1.1030324E-1,-4.429419E-3,1.2378189E-2,-6.328312E-3,7.025242E-3,-5.538432E-2,1.8745737E-2,-1.6985768E-2,4.7309477E-2,-3.223045E-2,4.551507E-2,5.1268823E-2,9.3288064E-2,3.1007914E-2,6.5161616E-2,1.2266407E-2,-2.268376E-3,-1.1810877E-1,-2.933501E-2,-4.5449097E-2,2.6973931E-2,6.785016E-2,-4.9006976E-2,4.9412172E-2,1.1880956E-2,3.5109513E-2,2.28748E-2,2.8423691E-2,4.0482634E-4,2.8369814E-2,1.4617765E-2,1.164389E-1,6.273087E-2,9.878067E-2,1.22404754E-1,9.444334E-2,1.2757698E-3,8.694594E-2,1.4450448E-2,7.649687E-2,2.726913E-2],"split_indices":[12,5,38,0,5,11,0,9,19,9,0,5,0,5,8,20,1,26,5,0,23,9,4,21,19,5,5,5,1,5,5,43,5,5,3,9,5,13,0,24,5,5,0,39,5,42,5,9,0,0,9,26,0,5,8,5,4,0,0,41,4,0,0,0,0,0,0,0,0,0,0,0,0,0,0,0,0,0,0,0,0,0,0,0,0,0,0,0,0,0,0,0,0,0,0,0,0,0,0,0,0,0,0,0,0,0,0,0,0,0,0,0,0,0,0,0,0,0,0,0,0],"split_type":[0,0,0,0,0,0,0,0,0,0,0,0,0,0,0,0,0,0,0,0,0,0,0,0,0,0,0,0,0,0,0,0,0,0,0,0,0,0,0,0,0,0,0,0,0,0,0,0,0,0,0,0,0,0,0,0,0,0,0,0,0,0,0,0,0,0,0,0,0,0,0,0,0,0,0,0,0,0,0,0,0,0,0,0,0,0,0,0,0,0,0,0,0,0,0,0,0,0,0,0,0,0,0,0,0,0,0,0,0,0,0,0,0,0,0,0,0,0,0,0,0],"sum_hessian":[6.707191E4,4.0223742E4,2.6848168E4,2.8423768E4,1.1799973E4,2.6158045E4,6.90123E2,2.2688254E3,2.6154943E4,1.0858479E4,9.4149457E2,5.2147725E3,2.0943271E4,2.0049391E2,4.896291E2,1.3902579E3,8.7856744E2,2.592459E4,2.3035387E2,3.8718062E3,6.9866724E3,3.3030038E2,6.111942E2,4.3990073E3,8.157651E2,1.4594694E4,6.3485776E3,1.9633517E2,4.158734E0,4.706244E2,1.9004683E1,1.3561259E3,3.4132084E1,6.7756104E2,2.0100644E2,2.4929191E4,9.9539764E2,8.1904594E1,1.4844928E2,3.1504327E2,3.556763E3,6.857379E3,1.2929327E2,1.6112552E2,1.6917485E2,2.0140225E2,4.0979196E2,4.334416E3,6.459137E1,7.806069E2,3.515819E1,2.4166448E3,1.217805E4,3.3951602E3,2.9534177E3,9.122308E1,1.0511209E2,1.1134723E0,3.0452614E0,3.5467432E2,1.1595007E2,1.7936836E1,1.0678473E0,1.2325494E3,1.2357638E2,2.4310911E1,9.821172E0,1.03550415E2,5.740106E2,1.4364056E2,5.7365875E1,1.0956385E4,1.3972806E4,9.3013226E2,6.526541E1,3.619398E1,4.5710613E1,1.469535E2,1.4957771E0,3.1181458E2,3.228711E0,1.4992837E3,2.0574792E3,5.085664E3,1.7717151E3,1.1406792E2,1.5225351E1,1.23582855E2,3.7542664E1,1.8844662E1,1.503302E2,1.5959119E2,4.1811073E1,3.408994E2,6.889254E1,1.7175713E3,2.6168447E3,2.3513195E1,4.107817E1,1.6474083E1,7.641328E2,5.0785074E0,3.0079685E1,2.261613E3,1.5503175E2,3.3226475E3,8.855402E3,3.155113E2,3.079649E3,1.9546733E3,9.987444E2,4.23404E1,4.8882683E1,3.6365463E1,6.874663E1,1.7179294E0,1.327332E0,3.507259E2,3.9484372E0,8.93071E1,2.6642975E1],"tree_param":{"num_deleted":"0","num_feature":"44","num_nodes":"121","size_leaf_vector":"1"}},{"base_weights":[1.2711501E-3,-1.360424E-1,2.0723943E-1,-2.0411049E-1,2.6271714E-2,1.5139866E-1,3.9501983E-1,-4.0000714E-2,-2.8865907E-1,-1.453384E-2,1.9318576E-1,1.3229582E-1,8.7005943E-1,3.6358356E-1,7.414758E-1,2.3258425E-1,-1.6222909E-1,-4.142844E-1,-2.0195372E-1,5.7943255E-2,-8.888887E-2,1.3369781E-1,3.5604745E-1,9.4966546E-2,2.3011819E-1,9.442476E-1,6.83577E-1,4.4626394E-1,2.925751E-1,4.8571834E-1,8.6673385E-1,4.1462907E-1,-3.666737E-2,-2.9922345E-1,9.539112E-2,-4.238726E-1,7.4071604E-1,-2.4710949E-1,-2.9378407E-2,-4.3817904E-2,1.1466499E-1,-1.6037776E-1,-3.3491962E-3,4.46122E-2,2.6060435E-1,3.655965E-1,-5.1537967E-1,4.466219E-2,1.7559247E-1,1.9176026E-1,3.32297E-1,8.119636E-1,1.0391717E0,7.5377035E-1,-5.1561963E-2,4.2524272E-1,7.8695047E-1,2.4157342E-1,3.9994377E-1,9.983426E-1,3.9841047E-1,4.4977242E-1,9.442519E-1,5.4970454E-2,1.3928564E-2,4.568874E-2,-1.2900682E-2,-1.1460359E-2,-4.1118763E-2,4.2614415E-2,-1.9296323E-3,-4.3344278E-2,6.862923E-2,1.1600661E-1,3.8363665E-2,-1.2834984E-2,-3.669231E-2,-7.952046E-3,1.7412556E-2,-5.0549293E-3,1.3052383E-1,2.169898E-2,5.3952606E-3,-2.3129482E-2,-8.333199E-3,-4.135889E-3,1.171805E-2,1.0912394E-1,3.4793906E-3,2.3421662E-2,5.165687E-2,3.823502E-2,-1.6041173E-2,5.776456E-2,-1.1689941E-1,-9.004007E-3,8.54523E-3,2.132509E-2,-2.8593699E-3,2.803277E-2,1.4962065E-2,3.8204975E-2,1.9625487E-2,1.05534665E-1,7.147956E-2,1.049459E-1,-4.5207724E-2,6.3492335E-2,8.992007E-2,5.2984476E-2,-1.2609483E-1,4.3198712E-2,-5.057277E-2,8.013839E-2,-5.9363622E-2,2.4754195E-2,-6.904912E-2,1.1618407E-1,3.82137E-2,3.6946084E-2,1.2174731E-1,-5.801032E-2,5.034855E-2,1.1162623E-1,-1.3607608E-3,7.824347E-2,1.0315823E-1],"categories":[],"categories_nodes":[],"categories_segments":[],"categories_sizes":[],"default_left":[0,0,0,0,0,0,0,0,0,0,0,0,0,0,0,0,0,0,0,0,0,0,0,0,0,0,0,0,0,0,0,0,0,0,0,0,0,0,0,0,0,0,0,0,0,0,0,0,0,0,0,0,0,0,0,0,0,0,0,0,0,0,0,0,0,0,0,0,0,0,0,0,0,0,0,0,0,0,0,0,0,0,0,0,0,0,0,0,0,0,0,0,0,0,0,0,0,0,0,0,0,0,0,0,0,0,0,0,0,0,0,0,0,0,0,0,0,0,0,0,0,0,0,0,0,0,0],"id":9,"left_children":[1,3,5,7,9,11,13,15,17,19,21,23,25,27,29,31,33,35,37,39,41,43,45,47,49,51,53,55,57,59,61,63,65,67,69,71,73,75,77,79,81,83,85,87,89,91,93,95,97,99,101,103,105,107,109,111,113,115,117,119,121,123,125,-1,-1,-1,-1,-1,-1,-1,-1,-1,-1,-1,-1,-1,-1,-1,-1,-1,-1,-1,-1,-1,-1,-1,-1,-1,-1,-1,-1,-1,-1,-1,-1,-1,-1,-1,-1,-1,-1,-1,-1,-1,-1,-1,-1,-1,-1,-1,-1,-1,-1,-1,-1,-1,-1,-1,-1,-1,-1,-1,-1,-1,-1,-1,-1],"loss_changes":[1.8921951E3,4.435135E2,2.8055872E2,3.924088E2,8.078972E1,2.8309326E2,6.653192E1,3.204731E2,2.0322766E2,5.1373745E1,2.2527603E1,7.336255E1,6.741913E0,3.289502E1,1.589389E1,1.4597838E2,2.3439624E2,8.471265E1,8.606665E1,2.7870205E1,2.8774033E1,1.930205E1,5.3710327E0,5.899382E1,2.1688568E1,3.9200745E0,8.067787E0,1.8264832E1,1.6490753E1,7.1972313E0,1.0583405E1,6.600406E1,5.484597E1,8.957263E1,8.748793E1,8.0607544E1,9.005005E0,1.24520874E2,2.3400196E1,1.5762874E1,1.9246986E1,1.3985863E1,9.823637E0,1.0288915E1,4.636711E0,5.495575E0,5.7945995E0,4.9235817E1,4.298065E1,1.5026886E1,1.016864E1,3.1021423E0,3.8081207E0,1.8850555E0,1.0862046E1,1.5591217E1,3.4599075E0,1.1609367E1,1.2769806E1,2.86195E0,1.5371805E1,1.7094109E1,3.2383575E0,0E0,0E0,0E0,0E0,0E0,0E0,0E0,0E0,0E0,0E0,0E0,0E0,0E0,0E0,0E0,0E0,0E0,0E0,0E0,0E0,0E0,0E0,0E0,0E0,0E0,0E0,0E0,0E0,0E0,0E0,0E0,0E0,0E0,0E0,0E0,0E0,0E0,0E0,0E0,0E0,0E0,0E0,0E0,0E0,0E0,0E0,0E0,0E0,0E0,0E0,0E0,0E0,0E0,0E0,0E0,0E0,0E0,0E0,0E0,0E0,0E0,0E0,0E0,0E0],"parents":[2147483647,0,0,1,1,2,2,3,3,4,4,5,5,6,6,7,7,8,8,9,9,10,10,11,11,12,12,13,13,14,14,15,15,16,16,17,17,18,18,19,19,20,20,21,21,22,22,23,23,24,24,25,25,26,26,27,27,28,28,29,29,30,30,31,31,32,32,33,33,34,34,35,35,36,36,37,37,38,38,39,39,40,40,41,41,42,42,43,43,44,44,45,45,46,46,47,47,48,48,49,49,50,50,51,51,52,52,53,53,54,54,55,55,56,56,57,57,58,58,59,59,60,60,61,61,62,62],"right_children":[2,4,6,8,10,12,14,16,18,20,22,24,26,28,30,32,34,36,38,40,42,44,46,48,50,52,54,56,58,60,62,64,66,68,70,72,74,76,78,80,82,84,86,88,90,92,94,96,98,100,102,104,106,108,110,112,114,116,118,120,122,124,126,-1,-1,-1,-1,-1,-1,-1,-1,-1,-1,-1,-1,-1,-1,-1,-1,-1,-1,-1,-1,-1,-1,-1,-1,-1,-1,-1,-1,-1,-1,-1,-1,-1,-1,-1,-1,-1,-1,-1,-1,-1,-1,-1,-1,-1,-1,-1,-1,-1,-1,-1,-1,-1,-1,-1,-1,-1,-1,-1,-1,-1,-1,-1,-1],"split_conditions":[1E0,4.797222E0,1.1E1,5.2E1,1.383125E1,1E0,5.2E1,7.895833E-1,1.5284722E0,1E0,2.7625694E1,1.7E1,6E0,1E0,1E0,3.9E1,1E0,1E0,1.7E1,1.1E1,1.8E1,6.9E1,9E1,4E0,2.5E1,4.2E0,7.038889E0,1E0,2.3E1,3.3E1,4.9E1,1E0,1.7430556E-1,1.95E0,3.3E1,1E0,2.5625E-1,1E0,2.4E1,1E0,6.3E1,1E0,2.7E1,4E0,1.2E1,1E0,5E0,1E0,7.8E1,6.1E1,1E0,6.236111E-1,8.7E1,1.3E1,1E0,8.9E1,6.3E1,1E0,3E1,3.1E1,3.8E1,3.7E1,6E0,5.4970454E-2,1.3928564E-2,4.568874E-2,-1.2900682E-2,-1.1460359E-2,-4.1118763E-2,4.2614415E-2,-1.9296323E-3,-4.3344278E-2,6.862923E-2,1.1600661E-1,3.8363665E-2,-1.2834984E-2,-3.669231E-2,-7.952046E-3,1.7412556E-2,-5.0549293E-3,1.3052383E-1,2.169898E-2,5.3952606E-3,-2.3129482E-2,-8.333199E-3,-4.135889E-3,1.171805E-2,1.0912394E-1,3.4793906E-3,2.3421662E-2,5.165687E-2,3.823502E-2,-1.6041173E-2,5.776456E-2,-1.1689941E-1,-9.004007E-3,8.54523E-3,2.132509E-2,-2.8593699E-3,2.803277E-2,1.4962065E-2,3.8204975E-2,1.9625487E-2,1.05534665E-1,7.147956E-2,1.049459E-1,-4.5207724E-2,6.3492335E-2,8.992007E-2,5.2984476E-2,-1.2609483E-1,4.3198712E-2,-5.057277E-2,8.013839E-2,-5.9363622E-2,2.4754195E-2,-6.904912E-2,1.1618407E-1,3.82137E-2,3.6946084E-2,1.2174731E-1,-5.801032E-2,5.034855E-2,1.1162623E-1,-1.3607608E-3,7.824347E-2,1.0315823E-1],"split_indices":[12,5,6,0,5,38,6,5,5,6,5,7,6,39,1,0,1,19,7,7,7,0,0,6,7,5,5,20,6,0,0,6,5,5,0,32,5,6,7,38,0,1,7,7,4,41,4,35,0,0,8,5,0,7,39,0,0,36,0,0,0,0,4,0,0,0,0,0,0,0,0,0,0,0,0,0,0,0,0,0,0,0,0,0,0,0,0,0,0,0,0,0,0,0,0,0,0,0,0,0,0,0,0,0,0,0,0,0,0,0,0,0,0,0,0,0,0,0,0,0,0,0,0,0,0,0,0],"split_type":[0,0,0,0,0,0,0,0,0,0,0,0,0,0,0,0,0,0,0,0,0,0,0,0,0,0,0,0,0,0,0,0,0,0,0,0,0,0,0,0,0,0,0,0,0,0,0,0,0,0,0,0,0,0,0,0,0,0,0,0,0,0,0,0,0,0,0,0,0,0,0,0,0,0,0,0,0,0,0,0,0,0,0,0,0,0,0,0,0,0,0,0,0,0,0,0,0,0,0,0,0,0,0,0,0,0,0,0,0,0,0,0,0,0,0,0,0,0,0,0,0,0,0,0,0,0,0],"sum_hessian":[6.690201E4,4.014125E4,2.676076E4,2.8281047E4,1.1860205E4,2.0628277E4,6.132482E3,9.616597E3,1.8664451E4,9.531057E3,2.3291487E3,2.0095305E4,5.3297266E2,5.6242095E3,5.0827255E2,2.9768765E3,6.6397197E3,7.620095E3,1.10443545E4,4.8265894E3,4.704467E3,1.7073364E3,6.218123E2,1.4546351E4,5.548954E3,3.78379E2,1.5459369E2,2.5960974E3,3.0281123E3,1.6869704E2,3.3957553E2,1.7757363E3,1.2011403E3,4.33457E3,2.3051501E3,7.5579863E3,6.2109184E1,8.753498E3,2.290857E3,1.7275392E3,3.09905E3,2.5622327E3,2.1422341E3,1.0039425E3,7.033939E2,6.1564655E2,6.1657524E0,8.958494E3,5.587856E3,4.0365212E3,1.5124331E3,1.6207246E2,2.1630652E2,1.4109605E2,1.3497628E1,2.4473386E3,1.4875883E2,2.0551404E3,9.7297186E2,2.3031843E1,1.4566519E2,5.430056E1,2.8527496E2,1.1906444E3,5.850919E2,1.8868268E2,1.0124575E3,1.6371178E3,2.697452E3,5.928071E2,1.7123429E3,7.493994E3,6.399236E1,2.7529768E1,3.457942E1,4.3971245E3,4.3563735E3,1.8384774E3,4.523796E2,1.7199199E3,7.6193533E0,1.153077E3,1.945973E3,1.3331385E3,1.2290942E3,1.6291346E3,5.130996E2,8.306706E0,9.956358E2,6.39393E2,6.400095E1,5.969078E2,1.873876E1,2.3507957E0,3.8149567E0,2.0819636E3,6.8765303E3,4.717715E3,8.701414E2,1.2995415E3,2.7369797E3,1.106105E3,4.0632822E2,4.3429863E1,1.1864261E2,2.151188E2,1.1877252E0,8.059714E1,6.049892E1,9.494893E0,4.002735E0,2.4302686E3,1.707006E1,1.4763492E2,1.1239294E0,2.0427936E3,1.2346746E1,2.0753334E1,9.5221857E2,6.6456227E0,1.638622E1,1.3686694E1,1.319785E2,2.1691801E1,3.260876E1,1.0348456E2,1.817904E2],"tree_param":{"num_deleted":"0","num_feature":"44","num_nodes":"127","size_leaf_vector":"1"}},{"base_weights":[1.9024145E-3,-1.2567426E-1,1.9282739E-1,-1.8969895E-1,2.7350977E-2,6.485673E-2,2.2452433E-1,-2.0280385E-1,6.628214E-1,2.2915937E-4,2.6414573E-1,-3.5555113E-2,1.5059434E-1,2.5647375E-1,7.705814E-2,2.2462747E-1,-2.2642525E-1,8.801018E-1,3.843512E-2,-1.0813207E-1,3.551224E-2,1.5527408E-1,3.6528265E-1,7.6089196E-2,-1.0873545E-1,1.2166123E-1,4.051087E-1,4.629467E-1,2.3186408E-1,-1.2823413E-1,1.4069879E-1,3.0761898E-1,-6.734092E-1,-2.3558982E-1,6.0311764E-1,9.621331E-1,-4.5550784E-1,-2.3530471E-1,4.55592E-1,5.180686E-2,-1.5412486E-1,8.781293E-2,-4.039657E-2,-5.7510573E-2,2.505845E-1,8.106371E-1,3.4321642E-1,5.298669E-1,-2.8780722E-3,-5.405499E-1,-7.754249E-2,1.3228835E-1,-3.0494568E-1,4.1648713E-1,-1.258491E-1,5.4744583E-1,3.6056778E-1,2.1433744E-1,3.7565765E-1,-2.982574E-1,-4.8974287E-2,1.22001916E-1,3.9701593E-1,5.13385E-2,3.5618118E-4,-1.16588615E-1,-5.592528E-2,-3.0433614E-2,-1.517936E-2,3.867357E-2,8.936154E-2,8.473058E-2,1.4231984E-1,-8.346206E-2,3.308816E-2,-5.0138038E-2,3.922327E-3,6.2902966E-3,6.826144E-2,7.312003E-2,-4.3988223E-3,-2.670214E-2,-1.0509466E-2,6.2576756E-3,2.9037148E-2,-6.623909E-3,1.2084138E-2,1.0186884E-2,-2.0803524E-2,3.1417873E-2,-2.0648749E-3,9.336763E-2,-5.1149633E-2,1.5276435E-3,3.8318213E-2,4.3511864E-2,7.5574994E-2,3.3396774E-3,-5.8340866E-2,-1.0430107E-1,-3.698065E-2,-2.3654243E-2,-2.3160386E-3,1.7035054E-2,1.7987641E-3,-4.9163632E-2,2.5203282E-2,3.7350018E-2,6.685167E-2,3.287053E-2,6.110358E-2,2.5114227E-2,4.576524E-2,3.2709725E-2,1.8811941E-2,3.5218727E-2,5.910806E-2,-5.579334E-2,-1.8890547E-2,2.1656912E-3,-2.8058056E-2,5.984828E-3,1.9382183E-2,4.224524E-2,-8.995559E-2],"categories":[],"categories_nodes":[],"categories_segments":[],"categories_sizes":[],"default_left":[0,0,0,0,0,0,0,0,0,0,0,0,0,0,0,0,0,0,0,0,0,0,0,0,0,0,0,0,0,0,0,0,0,0,0,0,0,0,0,0,0,0,0,0,0,0,0,0,0,0,0,0,0,0,0,0,0,0,0,0,0,0,0,0,0,0,0,0,0,0,0,0,0,0,0,0,0,0,0,0,0,0,0,0,0,0,0,0,0,0,0,0,0,0,0,0,0,0,0,0,0,0,0,0,0,0,0,0,0,0,0,0,0,0,0,0,0,0,0,0,0,0,0,0,0],"id":10,"left_children":[1,3,5,7,9,11,13,15,17,19,21,23,25,27,29,31,33,35,37,39,41,43,45,47,49,51,53,55,57,59,61,63,65,67,69,71,73,75,77,79,81,83,85,87,89,91,93,95,97,99,101,103,105,107,-1,109,111,113,115,117,119,121,123,-1,-1,-1,-1,-1,-1,-1,-1,-1,-1,-1,-1,-1,-1,-1,-1,-1,-1,-1,-1,-1,-1,-1,-1,-1,-1,-1,-1,-1,-1,-1,-1,-1,-1,-1,-1,-1,-1,-1,-1,-1,-1,-1,-1,-1,-1,-1,-1,-1,-1,-1,-1,-1,-1,-1,-1,-1,-1,-1,-1,-1,-1],"loss_changes":[1.6224574E3,3.912072E2,1.08210144E2,3.1464398E2,7.564863E1,4.561649E1,1.00729004E2,2.7998425E2,5.7817337E1,4.0414646E1,1.3271957E1,1.9951672E1,2.0996948E1,8.919763E1,4.9786842E1,1.0845988E2,1.998894E2,3.5091812E1,1.2797205E1,1.9107414E1,3.1661526E1,1.1872367E1,5.881508E0,3.465583E1,1.9824516E1,1.1681381E1,6.0383186E0,1.5986176E1,3.950122E1,1.2140371E1,1.3889431E1,8.322756E1,6.273567E0,1.496615E2,1.7718666E1,1.4587585E1,5.93492E0,4.9690332E0,3.9126663E0,3.782136E1,1.1135582E1,2.4117458E1,1.3565026E1,4.3800545E0,6.9750843E0,5.171692E0,7.844101E0,2.739235E0,1.738731E1,8.124657E0,1.1898626E1,1.0899429E1,6.644862E0,2.8930168E0,0E0,1.4027771E1,8.902344E0,4.1332153E1,8.412521E0,8.032526E0,1.0089285E1,1.2094807E1,6.8864307E0,0E0,0E0,0E0,0E0,0E0,0E0,0E0,0E0,0E0,0E0,0E0,0E0,0E0,0E0,0E0,0E0,0E0,0E0,0E0,0E0,0E0,0E0,0E0,0E0,0E0,0E0,0E0,0E0,0E0,0E0,0E0,0E0,0E0,0E0,0E0,0E0,0E0,0E0,0E0,0E0,0E0,0E0,0E0,0E0,0E0,0E0,0E0,0E0,0E0,0E0,0E0,0E0,0E0,0E0,0E0,0E0,0E0,0E0,0E0,0E0,0E0,0E0],"parents":[2147483647,0,0,1,1,2,2,3,3,4,4,5,5,6,6,7,7,8,8,9,9,10,10,11,11,12,12,13,13,14,14,15,15,16,16,17,17,18,18,19,19,20,20,21,21,22,22,23,23,24,24,25,25,26,26,27,27,28,28,29,29,30,30,31,31,32,32,33,33,34,34,35,35,36,36,37,37,38,38,39,39,40,40,41,41,42,42,43,43,44,44,45,45,46,46,47,47,48,48,49,49,50,50,51,51,52,52,53,53,55,55,56,56,57,57,58,58,59,59,60,60,61,61,62,62],"right_children":[2,4,6,8,10,12,14,16,18,20,22,24,26,28,30,32,34,36,38,40,42,44,46,48,50,52,54,56,58,60,62,64,66,68,70,72,74,76,78,80,82,84,86,88,90,92,94,96,98,100,102,104,106,108,-1,110,112,114,116,118,120,122,124,-1,-1,-1,-1,-1,-1,-1,-1,-1,-1,-1,-1,-1,-1,-1,-1,-1,-1,-1,-1,-1,-1,-1,-1,-1,-1,-1,-1,-1,-1,-1,-1,-1,-1,-1,-1,-1,-1,-1,-1,-1,-1,-1,-1,-1,-1,-1,-1,-1,-1,-1,-1,-1,-1,-1,-1,-1,-1,-1,-1,-1,-1],"split_conditions":[1E0,4.797222E0,1E0,1E0,1.9572222E1,1E1,7.7E1,2.5625E-1,1E0,1.1E1,2.7625694E1,1E0,2.4E1,5.0972223E-1,1.7791667E0,1E0,1E0,1E0,2.692361E0,1E0,1E0,5.6E1,2.8E1,3.1E1,2.4E1,1E0,1E0,5E0,2.5E1,5E0,3E1,5.2E1,4.3E1,1E0,1E0,1.6381944E0,3E0,1E0,4.2E1,3.8E1,5.633333E0,2.6E1,2.8E1,2.2602083E1,3.2E1,3.7E1,4.2E1,1E0,1E0,1E0,1.8993056E0,7.7E1,1E0,8.2E1,-1.258491E-1,1E0,5.3E1,4.1E1,3.107361E1,9E0,1.1E1,1E0,1E0,5.13385E-2,3.5618118E-4,-1.16588615E-1,-5.592528E-2,-3.0433614E-2,-1.517936E-2,3.867357E-2,8.936154E-2,8.473058E-2,1.4231984E-1,-8.346206E-2,3.308816E-2,-5.0138038E-2,3.922327E-3,6.2902966E-3,6.826144E-2,7.312003E-2,-4.3988223E-3,-2.670214E-2,-1.0509466E-2,6.2576756E-3,2.9037148E-2,-6.623909E-3,1.2084138E-2,1.0186884E-2,-2.0803524E-2,3.1417873E-2,-2.0648749E-3,9.336763E-2,-5.1149633E-2,1.5276435E-3,3.8318213E-2,4.3511864E-2,7.5574994E-2,3.3396774E-3,-5.8340866E-2,-1.0430107E-1,-3.698065E-2,-2.3654243E-2,-2.3160386E-3,1.7035054E-2,1.7987641E-3,-4.9163632E-2,2.5203282E-2,3.7350018E-2,6.685167E-2,3.287053E-2,6.110358E-2,2.5114227E-2,4.576524E-2,3.2709725E-2,1.8811941E-2,3.5218727E-2,5.910806E-2,-5.579334E-2,-1.8890547E-2,2.1656912E-3,-2.8058056E-2,5.984828E-3,1.9382183E-2,4.224524E-2,-8.995559E-2],"split_indices":[12,5,11,43,5,7,0,5,9,7,5,9,7,5,5,26,32,20,5,9,11,0,0,0,0,29,22,7,7,4,7,0,0,1,42,5,7,1,0,0,5,7,7,5,7,7,0,3,26,35,5,0,8,0,0,1,0,0,5,7,4,1,28,0,0,0,0,0,0,0,0,0,0,0,0,0,0,0,0,0,0,0,0,0,0,0,0,0,0,0,0,0,0,0,0,0,0,0,0,0,0,0,0,0,0,0,0,0,0,0,0,0,0,0,0,0,0,0,0,0,0,0,0,0,0],"split_type":[0,0,0,0,0,0,0,0,0,0,0,0,0,0,0,0,0,0,0,0,0,0,0,0,0,0,0,0,0,0,0,0,0,0,0,0,0,0,0,0,0,0,0,0,0,0,0,0,0,0,0,0,0,0,0,0,0,0,0,0,0,0,0,0,0,0,0,0,0,0,0,0,0,0,0,0,0,0,0,0,0,0,0,0,0,0,0,0,0,0,0,0,0,0,0,0,0,0,0,0,0,0,0,0,0,0,0,0,0,0,0,0,0,0,0,0,0,0,0,0,0,0,0,0,0],"sum_hessian":[6.6607984E4,3.9928188E4,2.6679799E4,2.8150129E4,1.1778058E4,5.2970327E3,2.1382766E4,2.7724709E4,4.2542047E2,1.0568564E4,1.2094933E3,2.4400022E3,2.8570308E3,1.7574424E4,3.8083423E3,1.4514832E3,2.6273225E4,3.1529227E2,1.101282E2,2.5954294E3,7.9731353E3,5.836945E2,6.257988E2,9.660902E2,1.473912E3,2.5667244E3,2.903063E2,1.8697313E3,1.5704691E4,9.00971E2,2.907371E3,1.3292947E3,1.22188484E2,2.5986846E4,2.8637982E2,2.9731143E2,1.7980827E1,6.6757576E1,4.3370625E1,5.7963495E2,2.0157946E3,4.72055E3,3.2525857E3,1.8069092E2,4.030036E2,2.7855951E1,5.979429E2,1.4235443E2,8.237358E2,9.819785E1,1.3757142E3,2.5050125E3,6.1711945E1,2.8907877E2,1.2275465E0,1.0219287E3,8.478026E2,1.4000674E4,1.7040182E3,2.8558624E2,6.1538477E2,2.7110886E3,1.9628244E2,7.923771E2,5.3691754E2,2.1259748E1,1.00928734E2,1.4273912E4,1.1712933E4,1.6546318E2,1.2091663E2,2.4030234E2,5.7009094E1,1.2090669E1,5.890158E0,3.3481033E1,3.3276543E1,1.6356045E1,2.7014582E1,7.080958E1,5.0882535E2,6.0902124E2,1.4067733E3,4.198749E3,5.218008E2,2.8037947E3,4.4879083E2,8.792106E1,9.276985E1,3.2633237E2,7.667122E1,2.5753145E1,2.1028054E0,6.510483E1,5.32838E2,1.0234948E2,4.0004944E1,7.761782E2,4.755755E1,2.3610022E1,7.458783E1,3.49758E2,1.0259562E3,1.8788606E3,6.261519E2,4.630765E1,1.5404295E1,2.490773E2,4.0001457E1,2.3156088E2,7.9036786E2,4.002555E2,4.4754715E2,2.639047E3,1.1361627E4,1.5389807E3,1.6503743E2,8.341057E1,2.0217569E2,4.7226746E2,1.4311732E2,1.4543304E3,1.2567583E3,1.9316702E2,3.1154199E0],"tree_param":{"num_deleted":"0","num_feature":"44","num_nodes":"125","size_leaf_vector":"1"}},{"base_weights":[-1.9811469E-3,-4.9285803E-2,1.8001454E-1,-1.3420032E-1,5.8746584E-2,1.3420728E-1,4.7131595E-1,4.2117834E-3,-2.3670189E-1,3.3532497E-2,2.519118E-1,5.5412244E-2,2.0563455E-1,7.2512877E-1,3.9577365E-1,2.183463E-1,-2.4211398E-1,-3.3007276E-1,-1.5252656E-1,-1.2132085E-1,5.437427E-2,1.969552E-1,3.3873585E-1,3.282347E-1,3.5024706E-2,5.6721354E-1,1.8721601E-1,6.156315E-1,9.281E-1,8.0921924E-1,3.623133E-1,2.6983282E-1,-6.552983E-1,-3.166613E-1,2.7613398E-2,-3.389874E-1,8.7122595E-1,-1.8317951E-1,-1.0162198E-2,-2.582489E-1,5.7367478E-2,7.535971E-2,-3.8171444E-2,3.7970755E-1,1.4585549E-1,2.5620127E-1,4.3875423E-1,-1.5640508E-1,3.42967E-1,1.3531047E-3,1.9101568E-1,6.3668966E-1,2.6988592E-2,2.6106948E-1,1.3536276E-1,7.2524387E-1,3.7131897E-1,1.22572534E-1,9.5699364E-1,6.5909475E-1,1.1580977E0,4.3611625E-1,2.7929962E-1,4.156301E-2,1.2264091E-2,-8.457371E-2,-4.35187E-2,-4.3777607E-2,-8.909999E-3,-9.185692E-5,4.6448123E-2,-3.1576112E-2,-6.1749876E-2,1.0432108E-1,5.3913374E-2,-2.3432007E-2,-1.2653242E-2,-2.3647125E-3,6.408518E-2,3.2683497E-3,-3.102634E-2,2.1858377E-2,-1.0912273E-2,1.9811653E-2,5.069367E-3,-1.6400129E-2,2.029557E-3,3.965963E-2,-4.5102973E-2,4.745401E-2,1.2358534E-2,3.1749867E-2,-6.2923827E-3,4.1382875E-2,7.978513E-2,7.129664E-2,2.8755113E-2,9.991549E-4,-6.215604E-2,2.1924801E-2,-2.4001831E-2,6.85234E-2,3.485345E-2,-3.8589295E-2,7.026007E-2,2.3819117E-2,4.3334927E-2,-5.414812E-4,2.200753E-2,7.6225206E-2,-9.68202E-3,-2.6363924E-2,4.3867186E-2,8.45105E-2,-6.764597E-2,9.68112E-2,-2.2733564E-2,7.944315E-2,1.0881647E-2,-8.053534E-3,1.2136946E-1,4.5452528E-2,-1.9626874E-2,2.1539284E-2,6.1433803E-2],"categories":[],"categories_nodes":[],"categories_segments":[],"categories_sizes":[],"default_left":[0,0,0,0,0,0,0,0,0,0,0,0,0,0,0,0,0,0,0,0,0,0,0,0,0,0,0,0,0,0,0,0,0,0,0,0,0,0,0,0,0,0,0,0,0,0,0,0,0,0,0,0,0,0,0,0,0,0,0,0,0,0,0,0,0,0,0,0,0,0,0,0,0,0,0,0,0,0,0,0,0,0,0,0,0,0,0,0,0,0,0,0,0,0,0,0,0,0,0,0,0,0,0,0,0,0,0,0,0,0,0,0,0,0,0,0,0,0,0,0,0,0,0,0,0],"id":11,"left_children":[1,3,5,7,9,11,13,15,17,19,21,23,25,27,29,31,33,35,37,39,41,43,45,47,49,51,53,55,57,59,61,63,65,67,69,71,73,75,77,79,81,83,85,87,89,91,93,-1,95,97,99,101,103,105,107,109,111,113,115,117,119,121,123,-1,-1,-1,-1,-1,-1,-1,-1,-1,-1,-1,-1,-1,-1,-1,-1,-1,-1,-1,-1,-1,-1,-1,-1,-1,-1,-1,-1,-1,-1,-1,-1,-1,-1,-1,-1,-1,-1,-1,-1,-1,-1,-1,-1,-1,-1,-1,-1,-1,-1,-1,-1,-1,-1,-1,-1,-1,-1,-1,-1,-1,-1],"loss_changes":[5.7007544E2,4.8213263E2,1.8221866E2,4.1749353E2,1.1264716E2,6.643225E1,3.5295868E1,6.6050867E2,1.3282782E2,6.604217E1,1.2675568E1,3.1218447E1,4.113086E1,8.862152E0,1.9522278E1,3.0149643E2,1.1710266E2,8.6125305E1,3.8806152E1,5.9408672E1,3.5027584E1,1.5238804E1,8.420998E0,1.1416611E1,2.7446041E1,1.1228867E1,2.2533447E1,7.1938553E0,3.2987366E0,4.8111343E0,8.007874E0,1.357218E2,1.5271591E1,1.2570874E2,1.5729477E1,5.1272827E1,2.82547E0,2.116858E1,1.3855962E1,2.0810158E1,2.8313059E1,4.4503937E1,2.4532578E1,5.1910515E0,9.321716E0,1.1146004E1,3.840477E0,0E0,7.7522697E0,2.3137691E1,1.1341686E1,3.4743042E0,1.0086686E1,9.474136E0,4.1316948E1,5.8945694E0,3.8944807E0,4.1679497E0,2.0838928E0,5.6280937E0,2.211811E0,8.245956E0,1.3298527E1,0E0,0E0,0E0,0E0,0E0,0E0,0E0,0E0,0E0,0E0,0E0,0E0,0E0,0E0,0E0,0E0,0E0,0E0,0E0,0E0,0E0,0E0,0E0,0E0,0E0,0E0,0E0,0E0,0E0,0E0,0E0,0E0,0E0,0E0,0E0,0E0,0E0,0E0,0E0,0E0,0E0,0E0,0E0,0E0,0E0,0E0,0E0,0E0,0E0,0E0,0E0,0E0,0E0,0E0,0E0,0E0,0E0,0E0,0E0,0E0,0E0,0E0],"parents":[2147483647,0,0,1,1,2,2,3,3,4,4,5,5,6,6,7,7,8,8,9,9,10,10,11,11,12,12,13,13,14,14,15,15,16,16,17,17,18,18,19,19,20,20,21,21,22,22,23,23,24,24,25,25,26,26,27,27,28,28,29,29,30,30,31,31,32,32,33,33,34,34,35,35,36,36,37,37,38,38,39,39,40,40,41,41,42,42,43,43,44,44,45,45,46,46,48,48,49,49,50,50,51,51,52,52,53,53,54,54,55,55,56,56,57,57,58,58,59,59,60,60,61,61,62,62],"right_children":[2,4,6,8,10,12,14,16,18,20,22,24,26,28,30,32,34,36,38,40,42,44,46,48,50,52,54,56,58,60,62,64,66,68,70,72,74,76,78,80,82,84,86,88,90,92,94,-1,96,98,100,102,104,106,108,110,112,114,116,118,120,122,124,-1,-1,-1,-1,-1,-1,-1,-1,-1,-1,-1,-1,-1,-1,-1,-1,-1,-1,-1,-1,-1,-1,-1,-1,-1,-1,-1,-1,-1,-1,-1,-1,-1,-1,-1,-1,-1,-1,-1,-1,-1,-1,-1,-1,-1,-1,-1,-1,-1,-1,-1,-1,-1,-1,-1,-1,-1,-1,-1,-1,-1,-1],"split_conditions":[7E0,3.5138888E0,2.9E1,5.6E1,2.5E1,1E0,6E0,1E0,1.5284722E0,7E0,1.5631945E1,3.3E1,3E0,6.5E1,3.3E1,1E0,1.1E1,1E0,1.7E1,1E0,1E0,5.6944447E0,6.9E1,2.1E1,7.8881946E0,6.2E1,5.8E1,1E0,4.9E1,1E0,3.15625E0,3.9E1,1E0,1E0,2.1E1,1E0,7.0694447E-1,2.4375E0,3.1E1,1E0,5.1229167E0,1E0,5.3625E0,1E0,4.7E1,6.6E1,6E0,-1.5640508E-1,2.4E1,1E0,8.7E1,1E0,7.1E1,2.2E1,2.7604167E0,1E0,1E0,4.4E1,2.31E2,1E0,7E0,1E0,6E1,4.156301E-2,1.2264091E-2,-8.457371E-2,-4.35187E-2,-4.3777607E-2,-8.909999E-3,-9.185692E-5,4.6448123E-2,-3.1576112E-2,-6.1749876E-2,1.0432108E-1,5.3913374E-2,-2.3432007E-2,-1.2653242E-2,-2.3647125E-3,6.408518E-2,3.2683497E-3,-3.102634E-2,2.1858377E-2,-1.0912273E-2,1.9811653E-2,5.069367E-3,-1.6400129E-2,2.029557E-3,3.965963E-2,-4.5102973E-2,4.745401E-2,1.2358534E-2,3.1749867E-2,-6.2923827E-3,4.1382875E-2,7.978513E-2,7.129664E-2,2.8755113E-2,9.991549E-4,-6.215604E-2,2.1924801E-2,-2.4001831E-2,6.85234E-2,3.485345E-2,-3.8589295E-2,7.026007E-2,2.3819117E-2,4.3334927E-2,-5.414812E-4,2.200753E-2,7.6225206E-2,-9.68202E-3,-2.6363924E-2,4.3867186E-2,8.45105E-2,-6.764597E-2,9.68112E-2,-2.2733564E-2,7.944315E-2,1.0881647E-2,-8.053534E-3,1.2136946E-1,4.5452528E-2,-1.9626874E-2,2.1539284E-2,6.1433803E-2],"split_indices":[6,5,6,0,7,1,7,9,5,7,5,0,7,6,0,26,7,32,7,1,8,5,0,0,5,0,0,31,0,42,5,0,1,1,7,26,5,5,7,9,5,9,5,18,0,0,6,0,0,36,0,31,0,6,5,9,1,0,6,1,7,36,6,0,0,0,0,0,0,0,0,0,0,0,0,0,0,0,0,0,0,0,0,0,0,0,0,0,0,0,0,0,0,0,0,0,0,0,0,0,0,0,0,0,0,0,0,0,0,0,0,0,0,0,0,0,0,0,0,0,0,0,0,0,0],"split_type":[0,0,0,0,0,0,0,0,0,0,0,0,0,0,0,0,0,0,0,0,0,0,0,0,0,0,0,0,0,0,0,0,0,0,0,0,0,0,0,0,0,0,0,0,0,0,0,0,0,0,0,0,0,0,0,0,0,0,0,0,0,0,0,0,0,0,0,0,0,0,0,0,0,0,0,0,0,0,0,0,0,0,0,0,0,0,0,0,0,0,0,0,0,0,0,0,0,0,0,0,0,0,0,0,0,0,0,0,0,0,0,0,0,0,0,0,0,0,0,0,0,0,0,0,0],"sum_hessian":[6.621465E4,5.2555145E4,1.3659501E4,2.9425875E4,2.3129271E4,1.1804672E4,1.8548286E3,1.2520238E4,1.6905637E4,2.04598E4,2.669469E3,5.613696E3,6.1909766E3,4.2345908E2,1.4313696E3,6.697831E3,5.822407E3,8.013642E3,8.891994E3,2.426465E3,1.8033336E4,1.6367393E3,1.0327299E3,3.892827E2,5.224413E3,2.9863315E2,5.8923433E3,2.776876E2,1.4577148E2,1.05432465E2,1.3259371E3,6.325728E3,3.7210318E2,4.561519E3,1.2608878E3,7.9553247E3,5.8317333E1,7.3163906E3,1.5756038E3,1.3735074E3,1.0529576E3,1.4700151E4,3.3331848E3,3.562436E2,1.2804956E3,5.6777045E2,4.649594E2,2.1948984E0,3.870878E2,4.2977305E3,9.266826E2,2.6444537E2,3.4187798E1,2.4288916E3,3.4634517E3,1.903275E2,8.736009E1,5.2291765E0,1.4054231E2,7.573321E1,2.9699257E1,6.9965674E2,6.262804E2,3.177003E3,3.148725E3,1.9797456E2,1.7412862E2,2.9764446E3,1.5850745E3,1.1845242E3,7.636372E1,7.344932E3,6.103925E2,3.700945E1,2.1307884E1,3.8434326E3,3.4729578E3,1.5445735E3,3.1030205E1,2.0837521E2,1.1651322E3,5.3479266E2,5.181649E2,2.4583782E3,1.2241773E4,1.0568591E3,2.2763257E3,3.4965768E2,6.5858984E0,7.996629E1,1.2005293E3,4.7628998E2,9.148048E1,4.367933E2,2.8166111E1,4.8877556E1,3.3821027E2,4.239916E3,5.7814377E1,8.7017804E2,5.650455E1,2.2513911E2,3.9306248E1,2.148603E1,1.2701766E1,2.1462566E3,2.82635E2,1.3015077E3,2.161944E3,1.8219797E2,8.12954E0,8.0985E0,7.92616E1,2.7157621E0,2.5134144E0,1.3941606E2,1.1262549E0,6.042777E1,1.5305438E1,1.2565335E0,2.8442724E1,6.8013885E2,1.9517885E1,5.273366E2,9.894377E1],"tree_param":{"num_deleted":"0","num_feature":"44","num_nodes":"125","size_leaf_vector":"1"}},{"base_weights":[2.113842E-3,-1.07710384E-1,1.6648903E-1,-1.8806484E-2,-1.9793577E-1,1.5277413E-1,7.3359877E-1,1.1170088E-1,-1.1688141E-1,-2.670942E-1,-5.2460607E-2,1.19026326E-1,3.9555937E-1,7.575093E-1,-5.001029E-2,4.381762E-1,-2.255319E-2,-2.4158314E-1,1.7072748E-2,-1.6167964E-1,-3.4037274E-1,-1.0192318E-1,7.278489E-2,7.48107E-2,1.8472646E-1,5.45201E-1,3.001575E-1,8.5564893E-1,6.2227726E-1,-8.912117E-1,6.964686E-1,4.6575364E-1,-5.89069E-1,-2.0515832E-1,9.85286E-2,-3.3003715E-1,-1.3664545E-1,-7.278981E-2,1.15518115E-1,-6.036149E-4,-3.142131E-1,-4.235514E-1,-2.434929E-1,1.0336617E-1,-1.2198518E-1,3.149537E-2,1.864416E-1,7.5979023E-3,1.1901895E-1,2.5263372E-1,1.2475902E-1,4.9189073E-1,8.5225034E-1,6.065632E-1,2.6903504E-1,8.659832E-1,-1.9756411E-1,6.9965184E-1,1.9502842E-1,-1.5934812E-1,-3.3691397E-1,2.1438166E-1,1.1506911E-1,4.1677397E-2,1.0488798E-1,-8.047713E-2,4.758059E-2,3.1357936E-3,-2.9350717E-2,2.932537E-2,5.165687E-3,-4.1983966E-2,-1.9773658E-2,-2.4807964E-2,-7.6557696E-3,-2.5718544E-2,-4.378784E-4,8.992541E-3,5.5137116E-2,2.8398022E-2,-3.139395E-3,-3.8430404E-2,-5.9548784E-3,-4.309097E-2,7.262691E-2,-3.4520015E-2,-1.6438553E-2,3.7065674E-2,-1.5762768E-3,-1.6383803E-2,-2.1425744E-4,2.4464447E-3,7.6688185E-2,1.2214802E-2,3.2365464E-2,1.1282286E-2,-7.3486688E-3,-6.8888377E-4,1.4282755E-2,2.7207911E-2,-1.9243807E-3,6.223012E-3,1.818212E-2,3.6747962E-2,5.5513006E-2,1.3125493E-2,9.386952E-2,1.1211324E-1,5.3694885E-2,2.0544607E-2,3.9759133E-2,7.418297E-2,9.291189E-2,-8.5998505E-2,5.6203045E-2,6.6691056E-2,1.0616429E-1,9.166642E-2,-5.7004103E-3,4.1455995E-2,-8.011507E-2,1.1474009E-1,-9.494423E-2],"categories":[],"categories_nodes":[],"categories_segments":[],"categories_sizes":[],"default_left":[0,0,0,0,0,0,0,0,0,0,0,0,0,0,0,0,0,0,0,0,0,0,0,0,0,0,0,0,0,0,0,0,0,0,0,0,0,0,0,0,0,0,0,0,0,0,0,0,0,0,0,0,0,0,0,0,0,0,0,0,0,0,0,0,0,0,0,0,0,0,0,0,0,0,0,0,0,0,0,0,0,0,0,0,0,0,0,0,0,0,0,0,0,0,0,0,0,0,0,0,0,0,0,0,0,0,0,0,0,0,0,0,0,0,0,0,0,0,0,0,0,0,0],"id":12,"left_children":[1,3,5,7,9,11,13,15,17,19,21,23,25,27,29,31,33,35,37,39,41,43,45,47,49,51,53,55,57,59,61,63,65,67,69,71,73,75,77,79,81,83,85,87,89,91,93,95,97,99,101,103,105,107,109,111,113,115,117,-1,119,121,-1,-1,-1,-1,-1,-1,-1,-1,-1,-1,-1,-1,-1,-1,-1,-1,-1,-1,-1,-1,-1,-1,-1,-1,-1,-1,-1,-1,-1,-1,-1,-1,-1,-1,-1,-1,-1,-1,-1,-1,-1,-1,-1,-1,-1,-1,-1,-1,-1,-1,-1,-1,-1,-1,-1,-1,-1,-1,-1,-1,-1],"loss_changes":[1.1958898E3,3.1854523E2,2.0625879E2,2.5605188E2,1.9828137E2,2.1222809E2,1.177182E1,3.7622122E2,1.9079271E2,1.03135254E2,3.935788E1,6.606714E1,4.4967865E1,7.5337524E0,1.2853913E1,7.112961E1,1.3451897E2,5.4859863E1,4.8730015E1,1.3464096E2,6.3393433E1,1.8768627E1,8.436231E0,4.040542E1,3.7229034E1,1.9707428E1,1.8267914E1,3.9753418E0,8.434029E0,3.1994252E0,2.136467E0,6.914801E1,1.5504396E1,5.069651E1,3.3375626E1,3.8042084E1,1.810778E1,3.6327045E1,2.9271358E1,2.3372826E1,5.021756E1,3.617157E1,2.9248962E1,1.2932739E1,2.0810524E1,6.8101807E0,4.1876698E0,4.6052307E1,2.459114E1,2.2685059E1,1.7332901E1,8.057343E0,1.1128723E1,5.7533646E0,1.4276085E1,2.02536E0,2.6019297E0,1.8889618E0,7.534316E0,0E0,2.6459193E0,8.15693E0,0E0,0E0,0E0,0E0,0E0,0E0,0E0,0E0,0E0,0E0,0E0,0E0,0E0,0E0,0E0,0E0,0E0,0E0,0E0,0E0,0E0,0E0,0E0,0E0,0E0,0E0,0E0,0E0,0E0,0E0,0E0,0E0,0E0,0E0,0E0,0E0,0E0,0E0,0E0,0E0,0E0,0E0,0E0,0E0,0E0,0E0,0E0,0E0,0E0,0E0,0E0,0E0,0E0,0E0,0E0,0E0,0E0,0E0,0E0,0E0,0E0],"parents":[2147483647,0,0,1,1,2,2,3,3,4,4,5,5,6,6,7,7,8,8,9,9,10,10,11,11,12,12,13,13,14,14,15,15,16,16,17,17,18,18,19,19,20,20,21,21,22,22,23,23,24,24,25,25,26,26,27,27,28,28,29,29,30,30,31,31,32,32,33,33,34,34,35,35,36,36,37,37,38,38,39,39,40,40,41,41,42,42,43,43,44,44,45,45,46,46,47,47,48,48,49,49,50,50,51,51,52,52,53,53,54,54,55,55,56,56,57,57,58,58,60,60,61,61],"right_children":[2,4,6,8,10,12,14,16,18,20,22,24,26,28,30,32,34,36,38,40,42,44,46,48,50,52,54,56,58,60,62,64,66,68,70,72,74,76,78,80,82,84,86,88,90,92,94,96,98,100,102,104,106,108,110,112,114,116,118,-1,120,122,-1,-1,-1,-1,-1,-1,-1,-1,-1,-1,-1,-1,-1,-1,-1,-1,-1,-1,-1,-1,-1,-1,-1,-1,-1,-1,-1,-1,-1,-1,-1,-1,-1,-1,-1,-1,-1,-1,-1,-1,-1,-1,-1,-1,-1,-1,-1,-1,-1,-1,-1,-1,-1,-1,-1,-1,-1,-1,-1,-1,-1],"split_conditions":[1E0,1E0,1E0,1E0,1.6E1,1.8E1,3.1E1,4.6E1,3.461111E0,5.7E1,2.4E1,5E0,1.2E1,6E0,4.2E1,1E0,1.3402778E0,8E0,1.2E1,1E0,1.1E1,4.8E1,1.383125E1,1E1,1E0,6.6E1,3.7E1,8.8E1,6.061111E0,3.9791667E0,5.4E1,1E0,5.875E-1,4.8958334E-1,5.9E1,1E0,1.7791667E0,4E1,2.7625694E1,1.9583334E-1,4.982639E0,1E0,2.5208333E0,1E0,7.038889E0,5.1E1,1E0,1E0,1.7965277E0,7.2E1,1E0,1E0,1E0,2.7E1,2.4E1,3.945139E0,9E0,7.9E1,1E0,-1.5934812E-1,7E1,4.7E1,1.1506911E-1,4.1677397E-2,1.0488798E-1,-8.047713E-2,4.758059E-2,3.1357936E-3,-2.9350717E-2,2.932537E-2,5.165687E-3,-4.1983966E-2,-1.9773658E-2,-2.4807964E-2,-7.6557696E-3,-2.5718544E-2,-4.378784E-4,8.992541E-3,5.5137116E-2,2.8398022E-2,-3.139395E-3,-3.8430404E-2,-5.9548784E-3,-4.309097E-2,7.262691E-2,-3.4520015E-2,-1.6438553E-2,3.7065674E-2,-1.5762768E-3,-1.6383803E-2,-2.1425744E-4,2.4464447E-3,7.6688185E-2,1.2214802E-2,3.2365464E-2,1.1282286E-2,-7.3486688E-3,-6.8888377E-4,1.4282755E-2,2.7207911E-2,-1.9243807E-3,6.223012E-3,1.818212E-2,3.6747962E-2,5.5513006E-2,1.3125493E-2,9.386952E-2,1.1211324E-1,5.3694885E-2,2.0544607E-2,3.9759133E-2,7.418297E-2,9.291189E-2,-8.5998505E-2,5.6203045E-2,6.6691056E-2,1.0616429E-1,9.166642E-2,-5.7004103E-3,4.1455995E-2,-8.011507E-2,1.1474009E-1,-9.494423E-2],"split_indices":[12,6,38,9,7,6,6,0,5,0,7,6,7,6,6,20,5,7,7,9,7,0,5,7,39,6,0,0,5,5,6,43,5,5,0,1,5,0,5,5,5,38,5,9,5,6,8,9,5,0,1,1,1,0,7,5,4,0,9,0,0,6,0,0,0,0,0,0,0,0,0,0,0,0,0,0,0,0,0,0,0,0,0,0,0,0,0,0,0,0,0,0,0,0,0,0,0,0,0,0,0,0,0,0,0,0,0,0,0,0,0,0,0,0,0,0,0,0,0,0,0,0,0],"split_type":[0,0,0,0,0,0,0,0,0,0,0,0,0,0,0,0,0,0,0,0,0,0,0,0,0,0,0,0,0,0,0,0,0,0,0,0,0,0,0,0,0,0,0,0,0,0,0,0,0,0,0,0,0,0,0,0,0,0,0,0,0,0,0,0,0,0,0,0,0,0,0,0,0,0,0,0,0,0,0,0,0,0,0,0,0,0,0,0,0,0,0,0,0,0,0,0,0,0,0,0,0,0,0,0,0,0,0,0,0,0,0,0,0,0,0,0,0,0,0,0,0,0,0],"sum_hessian":[6.624356E4,3.9711445E4,2.6532117E4,2.0002812E4,1.9708633E4,2.590686E4,6.25259E2,8.582295E3,1.1420517E4,1.3357625E4,6.3510073E3,2.2746521E4,3.1603372E3,6.0677747E2,1.8481527E1,2.500175E3,6.08212E3,5.914105E3,5.506412E3,5.4790156E3,7.8786094E3,4.553072E3,1.7979355E3,1.3597595E4,9.148927E3,1.2285664E3,1.9317708E3,3.4852274E2,2.582547E2,8.59829E0,9.883237E0,2.4353423E3,6.48326E1,2.424701E3,3.6574194E3,3.207932E3,2.7061733E3,2.8788293E3,2.6275825E3,2.665373E3,2.8136423E3,4.237244E3,3.641365E3,4.049695E2,4.148102E3,1.3197648E3,4.7817072E2,5.395549E3,8.202046E3,4.2889253E3,4.8600015E3,1.0490338E3,1.7953264E2,1.7641794E2,1.7553528E3,3.4531226E2,3.210478E0,2.1811638E2,4.013834E1,2.9658816E0,5.632409E0,5.5086417E0,4.3745947E0,2.248218E3,1.8712442E2,5.411522E1,1.0717382E1,6.5958606E2,1.7651147E3,7.085491E2,2.9488704E3,1.9095806E3,1.2983513E3,9.469335E2,1.7592397E3,7.782821E2,2.1005474E3,2.482991E3,1.4459157E2,2.5942056E2,2.4059526E3,2.205983E3,6.0765924E2,4.2109214E3,2.6322647E1,1.5916453E3,2.0497197E3,1.2419678E2,2.8077274E2,3.0741458E3,1.0739565E3,1.3082897E3,1.1475099E1,3.268906E2,1.5128012E2,2.34805E3,3.047499E3,1.3044398E3,6.897606E3,4.002645E3,2.8628046E2,2.3199185E3,2.5400833E3,3.5582608E2,6.932077E2,1.9490448E1,1.6004219E2,1.9222902E1,1.5719504E2,1.1761709E3,5.7918195E2,1.20703636E2,2.2460861E2,1.644336E0,1.5661422E0,2.0263118E2,1.5485199E1,9.707141E0,3.0431198E1,2.1916795E0,3.4407294E0,3.0653284E0,2.4433136E0],"tree_param":{"num_deleted":"0","num_feature":"44","num_nodes":"123","size_leaf_vector":"1"}},{"base_weights":[1.7832987E-3,-6.8159457E-3,7.539823E-1,-2.8968032E-2,2.773101E-1,7.946817E-1,-3.8028646E-1,-8.780358E-2,5.241813E-2,5.153974E-1,2.2205052E-1,8.9554226E-1,6.326216E-1,-1.076669E0,1.7442057E-1,-9.786481E-2,6.600659E-1,-4.664313E-2,8.774462E-2,1.7817473E-1,6.172668E-1,1.7777118E-1,3.9609972E-1,9.345404E-1,4.755595E-1,9.182022E-1,5.1900667E-1,4.52368E-2,-1.2829597E0,-4.2713675E-1,5.654142E-1,-1.0690424E-1,5.8810174E-1,7.649813E-1,-4.1502017E-1,-1.3458757E-1,5.6032885E-2,6.297328E-2,2.1230213E-1,-1.9230379E-1,2.6234803E-1,6.426915E-1,8.164916E-5,1.1530676E-1,2.427871E-1,-9.8644686E-1,4.0315482E-1,1.2041098E0,8.913161E-1,-6.122417E-1,5.7726E-1,7.4482536E-1,1.19575396E-1,5.3962636E-1,-1.1549635E-1,-1.6337238E-1,-5.8971816E-1,1.3912968E-1,-1.0449649E0,-1.6855976E-2,7.9645246E-1,-2.5540525E-2,-6.5201162E-3,8.331111E-2,3.9343383E-2,1.00028075E-1,6.2087744E-2,1.0184797E-2,-7.189455E-2,-2.3344917E-2,-7.1813646E-3,-2.4583675E-2,1.1319677E-2,-8.6564367E-4,8.029944E-3,2.1461783E-2,-1.165242E-1,-5.3414254E-4,-1.0379405E-1,9.346924E-3,4.5650683E-2,5.809186E-2,8.527007E-2,2.9035429E-2,-7.09802E-2,1.4101833E-2,-9.058389E-3,1.8614503E-2,3.1376623E-2,2.4672782E-2,-1.4663447E-1,4.3011654E-2,3.0960608E-3,4.8744526E-2,1.3395879E-1,-2.7089089E-3,9.750621E-2,-7.6149814E-2,-2.312674E-2,7.022106E-2,-2.1098698E-2,7.827742E-2,2.0029755E-2,9.289548E-2,4.5872606E-2,1.8562507E-4,-1.4034495E-1,-5.737368E-2,6.823292E-2,-1.409266E-1,-1.8805334E-2,9.952556E-3,9.623531E-2],"categories":[],"categories_nodes":[],"categories_segments":[],"categories_sizes":[],"default_left":[0,0,0,0,0,0,0,0,0,0,0,0,0,0,0,0,0,0,0,0,0,0,0,0,0,0,0,0,0,0,0,0,0,0,0,0,0,0,0,0,0,0,0,0,0,0,0,0,0,0,0,0,0,0,0,0,0,0,0,0,0,0,0,0,0,0,0,0,0,0,0,0,0,0,0,0,0,0,0,0,0,0,0,0,0,0,0,0,0,0,0,0,0,0,0,0,0,0,0,0,0,0,0,0,0,0,0,0,0,0,0,0,0],"id":13,"left_children":[1,3,5,7,9,11,13,15,17,19,21,23,25,27,29,31,33,35,37,39,41,43,45,47,49,51,53,-1,55,57,59,61,63,65,67,69,71,73,75,77,79,81,83,85,87,89,91,93,95,97,99,101,-1,103,-1,-1,105,107,109,-1,111,-1,-1,-1,-1,-1,-1,-1,-1,-1,-1,-1,-1,-1,-1,-1,-1,-1,-1,-1,-1,-1,-1,-1,-1,-1,-1,-1,-1,-1,-1,